{"learner":{"attributes":{"scikit_learn":"{\"_estimator_type\": \"classifier\"}"},"feature_names":["hour_of_day","day_of_week","month","drivers_nearby","local_demand_score","is_raining","lead_time_minutes","trip_distance_km","is_airport_trip"],"feature_types":["int","int","int","int","float","int","int","float","int"],"gradient_booster":{"model":{"cats":{"enc":[],"feature_segments":[],"sorted_idx":[]},"gbtree_model_param":{"num_parallel_tree":"1","num_trees":"100"},"iteration_indptr":[0,1,2,3,4,5,6,7,8,9,10,11,12,13,14,15,16,17,18,19,20,21,22,23,24,25,26,27,28,29,30,31,32,33,34,35,36,37,38,39,40,41,42,43,44,45,46,47,48,49,50,51,52,53,54,55,56,57,58,59,60,61,62,63,64,65,66,67,68,69,70,71,72,73,74,75,76,77,78,79,80,81,82,83,84,85,86,87,88,89,90,91,92,93,94,95,96,97,98,99,100],"tree_info":[0,0,0,0,0,0,0,0,0,0,0,0,0,0,0,0,0,0,0,0,0,0,0,0,0,0,0,0,0,0,0,0,0,0,0,0,0,0,0,0,0,0,0,0,0,0,0,0,0,0,0,0,0,0,0,0,0,0,0,0,0,0,0,0,0,0,0,0,0,0,0,0,0,0,0,0,0,0,0,0,0,0,0,0,0,0,0,0,0,0,0,0,0,0,0,0,0,0,0,0],"trees":[{"base_weights":[1.3944937E-7,5.8212775E-1,-2.3281522E0,-2.1303465E0,1.0320082E0,-2.0160468E0,-3.525624E-1,-1.788672E0,-3.496691E-1,1.3075745E0,-4.1571524E-2,-3.5624367E-1,-1.7592217E0,-1.2078234E0,-2.0230849E0,1.339014E0,5.0735444E-1,5.665604E-1,-2.8325772E-1,-1.1613578E0,-1.9846239E0,-1.3130371E-1,-6.9644056E-2,-2.819663E-1,-1.7622994E-1,1.3482127E-1,6.387109E-2,-6.8262643E-3,1.365846E-1,6.370968E-2,-1.0931893E-1,-1.1075304E-1,-5.208111E-4,-1.103766E-1,-2.2664319E-1,-2.8009513E-1,-1.7166734E-1],"categories":[],"categories_nodes":[],"categories_segments":[],"categories_sizes":[],"default_left":[0,0,0,0,0,0,0,0,0,0,0,0,0,0,0,0,0,0,0,0,0,0,0,0,0,0,0,0,0,0,0,0,0,0,0,0,0],"id":0,"left_children":[1,3,5,7,9,11,-1,13,-1,15,17,-1,19,21,23,25,27,29,31,33,35,-1,-1,-1,-1,-1,-1,-1,-1,-1,-1,-1,-1,-1,-1,-1,-1],"loss_changes":[1.0901202E4,7.8542686E3,5.9419824E2,4.2124463E2,1.6330679E3,5.0152832E2,0E0,9.7576416E1,0E0,1.098291E2,1.6601204E2,0E0,1.4572412E2,1.0583405E1,1.03446045E2,2.636084E1,8.29445E1,3.8306435E1,1.8521654E2,1.679245E1,1.6937134E2,0E0,0E0,0E0,0E0,0E0,0E0,0E0,0E0,0E0,0E0,0E0,0E0,0E0,0E0,0E0,0E0],"parents":[2147483647,0,0,1,1,2,2,3,3,4,4,5,5,7,7,9,9,10,10,12,12,13,13,14,14,15,15,16,16,17,17,18,18,19,19,20,20],"right_children":[2,4,6,8,10,12,-1,14,-1,16,18,-1,20,22,24,26,28,30,32,34,36,-1,-1,-1,-1,-1,-1,-1,-1,-1,-1,-1,-1,-1,-1,-1,-1],"split_conditions":[1E0,3E0,8.01381E-1,7.977355E-1,8.01381E-1,3E0,-3.525624E-1,7E0,-3.496691E-1,1E0,7E0,-3.5624367E-1,7E0,6.6341376E-1,1.1E1,2.5067238E1,6E1,1E0,1.1E1,2.1467018E1,1.1E1,-1.3130371E-1,-6.9644056E-2,-2.819663E-1,-1.7622994E-1,1.3482127E-1,6.387109E-2,-6.8262643E-3,1.365846E-1,6.370968E-2,-1.0931893E-1,-1.1075304E-1,-5.208111E-4,-1.103766E-1,-2.2664319E-1,-2.8009513E-1,-1.7166734E-1],"split_indices":[5,3,4,4,4,3,0,0,0,8,0,0,0,4,0,7,6,8,0,7,0,0,0,0,0,0,0,0,0,0,0,0,0,0,0,0,0],"split_type":[0,0,0,0,0,0,0,0,0,0,0,0,0,0,0,0,0,0,0,0,0,0,0,0,0,0,0,0,0,0,0,0,0,0,0,0,0],"sum_hessian":[8.0414956E3,6.4335986E3,1.6078971E3,9.1472015E2,5.5188784E3,1.2775927E3,3.3030444E2,7.3358545E2,1.8113469E2,4.391461E3,1.1274177E3,1.801295E2,1.0974631E3,2.1269756E2,5.208879E2,4.224801E3,1.6666E2,3.2025256E2,8.071651E2,3.021592E2,7.953039E2,1.7510356E2,3.7593994E1,1.26050446E2,3.9483743E2,4.1691133E3,5.568736E1,1.0031766E2,6.634234E1,3.0778824E2,1.2464318E1,2.0284673E2,6.043184E2,2.8909177E2,1.30674305E1,1.9420212E2,6.011018E2],"tree_param":{"num_deleted":"0","num_feature":"9","num_nodes":"37","size_leaf_vector":"1"}},{"base_weights":[5.861398E-3,5.4335386E-1,-1.9039197E0,-1.7549695E0,9.781023E-1,-1.6676177E0,-2.7663425E-1,-1.4922796E0,-2.7477503E-1,1.2554334E0,-3.6746934E-2,-2.7937397E-1,-1.469138E0,-1.0318165E0,-1.6725425E0,1.2875525E0,4.6976057E-1,5.241308E-1,-2.5135416E-1,-9.943301E-1,-1.6426758E0,-1.1164983E-1,-6.095841E-2,-2.2665282E-1,-1.4709823E-1,1.2969902E-1,5.9357334E-2,-6.1310367E-3,1.3159496E-1,5.91347E-2,-9.4831735E-2,-9.4968066E-2,-4.686969E-4,-9.494101E-2,-2.0065267E-1,-2.2515665E-1,-1.4352371E-1],"categories":[],"categories_nodes":[],"categories_segments":[],"categories_sizes":[],"default_left":[0,0,0,0,0,0,0,0,0,0,0,0,0,0,0,0,0,0,0,0,0,0,0,0,0,0,0,0,0,0,0,0,0,0,0,0,0],"id":1,"left_children":[1,3,5,7,9,11,-1,13,-1,15,17,-1,19,21,23,25,27,29,31,33,35,-1,-1,-1,-1,-1,-1,-1,-1,-1,-1,-1,-1,-1,-1,-1,-1],"loss_changes":[8.227583E3,6.2515137E3,3.5413867E2,2.5547095E2,1.4806191E3,3.053025E2,0E0,6.3785156E1,0E0,1.03654785E2,1.361482E2,0E0,9.551123E1,7.352173E0,6.438037E1,2.5223145E1,7.370916E1,3.1543068E1,1.4089282E2,1.255838E1,1.0563013E2,0E0,0E0,0E0,0E0,0E0,0E0,0E0,0E0,0E0,0E0,0E0,0E0,0E0,0E0,0E0,0E0],"parents":[2147483647,0,0,1,1,2,2,3,3,4,4,5,5,7,7,9,9,10,10,12,12,13,13,14,14,15,15,16,16,17,17,18,18,19,19,20,20],"right_children":[2,4,6,8,10,12,-1,14,-1,16,18,-1,20,22,24,26,28,30,32,34,36,-1,-1,-1,-1,-1,-1,-1,-1,-1,-1,-1,-1,-1,-1,-1,-1],"split_conditions":[1E0,3E0,8.01381E-1,7.977355E-1,8.01381E-1,3E0,-2.7663425E-1,7E0,-2.7477503E-1,1E0,7E0,-2.7937397E-1,7E0,6.6341376E-1,1.1E1,2.5067238E1,6E1,1E0,1.1E1,1E0,1.1E1,-1.1164983E-1,-6.095841E-2,-2.2665282E-1,-1.4709823E-1,1.2969902E-1,5.9357334E-2,-6.1310367E-3,1.3159496E-1,5.91347E-2,-9.4831735E-2,-9.4968066E-2,-4.686969E-4,-9.494101E-2,-2.0065267E-1,-2.2515665E-1,-1.4352371E-1],"split_indices":[5,3,4,4,4,3,0,0,0,8,0,0,0,4,0,7,6,8,0,8,0,0,0,0,0,0,0,0,0,0,0,0,0,0,0,0,0],"split_type":[0,0,0,0,0,0,0,0,0,0,0,0,0,0,0,0,0,0,0,0,0,0,0,0,0,0,0,0,0,0,0,0,0,0,0,0,0],"sum_hessian":[8.013228E3,6.2538486E3,1.7593798E3,9.943136E2,5.2595347E3,1.383294E3,3.7608585E2,7.8824664E2,2.0606697E2,4.1305337E3,1.1290012E3,2.0531493E2,1.177979E3,2.2365823E2,5.6458844E2,3.9676914E3,1.6284227E2,3.1203995E2,8.1696124E2,3.1710202E2,8.6087695E2,1.8492569E2,3.8732548E1,1.404489E2,4.2413953E2,3.9136E3,5.4091366E1,1.0062023E2,6.2222034E1,2.989897E2,1.3050263E1,2.1250357E2,6.0445764E2,3.0548306E2,1.1618969E1,2.1625467E2,6.4462225E2],"tree_param":{"num_deleted":"0","num_feature":"9","num_nodes":"37","size_leaf_vector":"1"}},{"base_weights":[9.265754E-3,5.094482E-1,-1.620768E0,-1.4964483E0,9.2961353E-1,-1.4214534E0,-2.3231481E-1,-1.2791492E0,-2.3284875E-1,1.2102331E0,-3.2621533E-2,-2.3550968E-1,-1.2542423E0,-1.125402E0,-1.657638E0,1.2433003E0,4.3541935E-1,4.8466155E-1,-2.237295E-1,-1.0712179E0,-1.6780161E0,-1.2979499E-1,-8.080047E-2,-2.2159854E-1,-9.266296E-2,1.2530906E-1,5.5129237E-2,-5.508474E-3,1.2736146E-1,5.4850537E-2,-8.305072E-2,-8.235601E-2,-4.2182347E-4,-1.2850367E-1,-6.770473E-2,-2.2704642E-1,-8.4569715E-2],"categories":[],"categories_nodes":[],"categories_segments":[],"categories_sizes":[],"default_left":[0,0,0,0,0,0,0,0,0,0,0,0,0,0,0,0,0,0,0,0,0,0,0,0,0,0,0,0,0,0,0,0,0,0,0,0,0],"id":2,"left_children":[1,3,5,7,9,11,-1,13,-1,15,17,-1,19,21,23,25,27,29,31,33,35,-1,-1,-1,-1,-1,-1,-1,-1,-1,-1,-1,-1,-1,-1,-1,-1],"loss_changes":[6.443093E3,5.097867E3,2.564663E2,1.8643896E2,1.350248E3,2.2309741E2,0E0,4.6603638E1,0E0,9.864697E1,1.1181548E2,0E0,9.361609E1,3.1560791E1,9.528894E1,2.445996E1,6.5851204E1,2.6078499E1,1.0873274E2,7.177124E1,1.8017627E2,0E0,0E0,0E0,0E0,0E0,0E0,0E0,0E0,0E0,0E0,0E0,0E0,0E0,0E0,0E0,0E0],"parents":[2147483647,0,0,1,1,2,2,3,3,4,4,5,5,7,7,9,9,10,10,12,12,13,13,14,14,15,15,16,16,17,17,18,18,19,19,20,20],"right_children":[2,4,6,8,10,12,-1,14,-1,16,18,-1,20,22,24,26,28,30,32,34,36,-1,-1,-1,-1,-1,-1,-1,-1,-1,-1,-1,-1,-1,-1,-1,-1],"split_conditions":[1E0,3E0,7.977355E-1,8.01381E-1,8.01381E-1,3E0,-2.3231481E-1,1.7E1,-2.3284875E-1,1E0,7E0,-2.3550968E-1,1.7E1,1.1E1,2.1E1,2.5067238E1,6E1,1E0,1.1E1,1.1E1,2.1E1,-1.2979499E-1,-8.080047E-2,-2.2159854E-1,-9.266296E-2,1.2530906E-1,5.5129237E-2,-5.508474E-3,1.2736146E-1,5.4850537E-2,-8.305072E-2,-8.235601E-2,-4.2182347E-4,-1.2850367E-1,-6.770473E-2,-2.2704642E-1,-8.4569715E-2],"split_indices":[5,3,4,4,4,3,0,0,0,8,0,0,0,0,0,7,6,8,0,0,0,0,0,0,0,0,0,0,0,0,0,0,0,0,0,0,0],"split_type":[0,0,0,0,0,0,0,0,0,0,0,0,0,0,0,0,0,0,0,0,0,0,0,0,0,0,0,0,0,0,0,0,0,0,0,0,0],"sum_hessian":[7.9005757E3,6.046018E3,1.8545577E3,1.0466555E3,4.999363E3,1.4469735E3,4.0758414E2,8.3192395E2,2.147316E2,3.8703752E3,1.1289873E3,2.177963E2,1.2291772E3,5.9443134E2,2.3749263E2,3.711378E3,1.5899744E2,3.0416098E2,8.2482635E2,8.608925E2,3.682848E2,3.8308435E2,2.11347E2,1.3349623E2,1.0399639E2,3.658804E3,5.2574013E1,1.0089114E2,5.810629E1,2.9063525E2,1.3525714E1,2.2024338E2,6.0458295E2,5.5666705E2,3.042254E2,2.1413484E2,1.5414993E2],"tree_param":{"num_deleted":"0","num_feature":"9","num_nodes":"37","size_leaf_vector":"1"}},{"base_weights":[1.1493316E-2,4.7918794E-1,-1.412733E0,-1.3023951E0,8.8531315E-1,-1.2383915E0,-2.0469265E-1,-1.10828E0,-2.0336692E-1,1.1704754E0,-2.9052591E-2,-2.0692146E-1,-1.0915297E0,-7.3021376E-1,-1.255953E0,1.2047347E0,4.0383148E-1,4.4785553E-1,-1.9961217E-1,-7.004621E-1,-1.2340628E0,-6.988413E-2,-1.6961907E-1,-1.7408656E-1,-1.0915873E-1,1.21497944E-1,5.1160693E-2,-4.9505522E-3,1.2373074E-1,5.0831E-2,-7.326012E-2,-7.201632E-2,-3.7962143E-4,-6.558771E-2,-1.55695E-1,-1.7284621E-1,-1.0654066E-1],"categories":[],"categories_nodes":[],"categories_segments":[],"categories_sizes":[],"default_left":[0,0,0,0,0,0,0,0,0,0,0,0,0,0,0,0,0,0,0,0,0,0,0,0,0,0,0,0,0,0,0,0,0,0,0,0,0],"id":3,"left_children":[1,3,5,7,9,11,-1,13,-1,15,17,-1,19,21,23,25,27,29,31,33,35,-1,-1,-1,-1,-1,-1,-1,-1,-1,-1,-1,-1,-1,-1,-1,-1],"loss_changes":[5.154256E3,4.21584E3,2.0896338E2,1.5130383E2,1.2370693E3,1.8112354E2,0E0,4.6931885E1,0E0,9.4498535E1,9.190964E1,0E0,7.044324E1,6.1824493E0,4.711084E1,2.3956543E1,5.9081146E1,2.1615292E1,8.482088E1,1.211618E1,7.622693E1,0E0,0E0,0E0,0E0,0E0,0E0,0E0,0E0,0E0,0E0,0E0,0E0,0E0,0E0,0E0,0E0],"parents":[2147483647,0,0,1,1,2,2,3,3,4,4,5,5,7,7,9,9,10,10,12,12,13,13,14,14,15,15,16,16,17,17,18,18,19,19,20,20],"right_children":[2,4,6,8,10,12,-1,14,-1,16,18,-1,20,22,24,26,28,30,32,34,36,-1,-1,-1,-1,-1,-1,-1,-1,-1,-1,-1,-1,-1,-1,-1,-1],"split_conditions":[1E0,3E0,8.01381E-1,7.977355E-1,8.01381E-1,3E0,-2.0469265E-1,7E0,-2.0336692E-1,1E0,7E0,-2.0692146E-1,7E0,2.3729795E1,1.1E1,2.5067238E1,6E1,1E0,1.1E1,2.1467018E1,1.1E1,-6.988413E-2,-1.6961907E-1,-1.7408656E-1,-1.0915873E-1,1.21497944E-1,5.1160693E-2,-4.9505522E-3,1.2373074E-1,5.0831E-2,-7.326012E-2,-7.201632E-2,-3.7962143E-4,-6.558771E-2,-1.55695E-1,-1.7284621E-1,-1.0654066E-1],"split_indices":[5,3,4,4,4,3,0,0,0,8,0,0,0,7,0,7,6,8,0,7,0,0,0,0,0,0,0,0,0,0,0,0,0,0,0,0,0],"split_type":[0,0,0,0,0,0,0,0,0,0,0,0,0,0,0,0,0,0,0,0,0,0,0,0,0,0,0,0,0,0,0,0,0,0,0,0,0],"sum_hessian":[7.7359106E3,5.824045E3,1.9118657E3,1.0807634E3,4.7432812E3,1.5019332E3,4.0993253E2,8.5604395E2,2.2471945E2,3.6154539E3,1.1278275E3,2.2364485E2,1.2782883E3,2.4212102E2,6.139229E2,3.4602527E3,1.5520113E2,2.9667038E2,8.311571E2,3.4303055E2,9.352578E2,2.3617413E2,5.9468884E0,1.5298737E2,4.6093558E2,3.409111E3,5.114154E1,1.0113387E2,5.4067257E1,2.827589E2,1.39114685E1,2.264614E2,6.0469574E2,3.277358E2,1.5294732E1,2.355418E2,6.99716E2],"tree_param":{"num_deleted":"0","num_feature":"9","num_nodes":"37","size_leaf_vector":"1"}},{"base_weights":[1.2856862E-2,4.518258E-1,-1.2532054E0,-1.1516441E0,8.442789E-1,-1.0937304E0,-1.844969E-1,-9.772279E-1,-1.8420874E-1,1.1350179E0,-2.5938092E-2,-1.8676652E-1,-9.602554E-1,-6.473807E-1,-1.1056145E0,1.1706971E0,3.74622E-1,8.309552E-3,-2.372469E0,-8.1103724E-1,-1.3019931E0,-1.9260192E-4,-6.7977324E-2,-1.5366417E-1,-9.610047E-2,1.18149154E-1,4.74316E-2,-4.4503487E-3,1.2058681E-1,6.545274E-3,-1.3843575E-1,-7.1919404E-2,-2.5065684E-1,-9.892478E-2,-4.8242148E-2,-1.7800398E-1,-6.1445158E-2],"categories":[],"categories_nodes":[],"categories_segments":[],"categories_sizes":[],"default_left":[0,0,0,0,0,0,0,0,0,0,0,0,0,0,0,0,0,0,0,0,0,0,0,0,0,0,0,0,0,0,0,0,0,0,0,0,0],"id":4,"left_children":[1,3,5,7,9,11,-1,13,-1,15,17,-1,19,21,23,25,27,29,31,33,35,-1,-1,-1,-1,-1,-1,-1,-1,-1,-1,-1,-1,-1,-1,-1,-1],"loss_changes":[4.1879536E3,3.5221067E3,1.8106836E2,1.3074365E2,1.1374939E3,1.5632678E2,0E0,3.658441E1,0E0,9.098926E1,9.0578026E1,0E0,6.562195E1,5.2088165E0,3.7954346E1,2.3632324E1,5.3186813E1,8.8557304E1,1.7918777E0,5.2979614E1,1.2898529E2,0E0,0E0,0E0,0E0,0E0,0E0,0E0,0E0,0E0,0E0,0E0,0E0,0E0,0E0,0E0,0E0],"parents":[2147483647,0,0,1,1,2,2,3,3,4,4,5,5,7,7,9,9,10,10,12,12,13,13,14,14,15,15,16,16,17,17,18,18,19,19,20,20],"right_children":[2,4,6,8,10,12,-1,14,-1,16,18,-1,20,22,24,26,28,30,32,34,36,-1,-1,-1,-1,-1,-1,-1,-1,-1,-1,-1,-1,-1,-1,-1,-1],"split_conditions":[1E0,3E0,8.01381E-1,8.01381E-1,8.01381E-1,3E0,-1.844969E-1,7E0,-1.8420874E-1,1E0,2.5067238E1,-1.8676652E-1,1.7E1,2.6723833E0,1.1E1,2.5067238E1,6E1,1E0,3E0,1.1E1,2.1E1,-1.9260192E-4,-6.7977324E-2,-1.5366417E-1,-9.610047E-2,1.18149154E-1,4.74316E-2,-4.4503487E-3,1.2058681E-1,6.545274E-3,-1.3843575E-1,-7.1919404E-2,-2.5065684E-1,-9.892478E-2,-4.8242148E-2,-1.7800398E-1,-6.1445158E-2],"split_indices":[5,3,4,4,4,3,0,0,0,8,7,0,0,7,0,7,6,8,0,0,0,0,0,0,0,0,0,0,0,0,0,0,0,0,0,0,0],"split_type":[0,0,0,0,0,0,0,0,0,0,0,0,0,0,0,0,0,0,0,0,0,0,0,0,0,0,0,0,0,0,0,0,0,0,0,0,0],"sum_hessian":[7.533497E3,5.594438E3,1.9390594E3,1.0996392E3,4.494799E3,1.5296742E3,4.0938525E2,8.798033E2,2.1983595E2,3.368935E3,1.1258635E3,2.2309575E2,1.3065785E3,2.4819374E2,6.3160956E2,3.2174275E3,1.5150774E2,1.11065E3,1.521349E1,9.11813E2,3.9476547E2,1.1911148E1,2.362826E2,1.5625291E2,4.7535663E2,3.1676304E3,4.9797073E1,1.0135144E2,5.0156296E1,1.0677899E3,4.2860004E1,1.6188067E0,1.3594683E1,5.8989734E2,3.2191565E2,2.3192165E2,1.6284383E2],"tree_param":{"num_deleted":"0","num_feature":"9","num_nodes":"37","size_leaf_vector":"1"}},{"base_weights":[1.3729877E-2,4.2645016E-1,-1.1241353E0,-1.0288643E0,8.0519664E-1,-9.748469E-1,-1.6943438E-1,-8.66984E-1,-1.6910462E-1,1.1029702E0,-2.3460807E-2,-1.718076E-1,-8.511261E-1,-7.409503E-1,-1.1743995E0,1.1402864E0,3.475061E-1,4.1639635E-1,-1.7593251E-1,-5.065076E-1,-9.7794634E-1,-8.844503E-2,-4.786175E-2,-1.6242033E-1,-5.779434E-2,1.15172125E-1,4.3926254E-2,-4.001628E-3,1.1784007E-1,4.4314973E-2,-1.3791834E-1,-6.295993E-2,-1.5355014E-4,-4.678439E-2,-1.2560819E-1,-1.4186738E-1,-8.297675E-2],"categories":[],"categories_nodes":[],"categories_segments":[],"categories_sizes":[],"default_left":[0,0,0,0,0,0,0,0,0,0,0,0,0,0,0,0,0,0,0,0,0,0,0,0,0,0,0,0,0,0,0,0,0,0,0,0,0],"id":5,"left_children":[1,3,5,7,9,11,-1,13,-1,15,17,-1,19,21,23,25,27,29,31,33,35,-1,-1,-1,-1,-1,-1,-1,-1,-1,-1,-1,-1,-1,-1,-1,-1],"loss_changes":[3.4353892E3,2.9597124E3,1.6409717E2,1.174115E2,1.0512227E3,1.4064722E2,0E0,3.373639E1,0E0,8.795386E1,7.566645E1,0E0,5.749591E1,2.3525879E1,6.828067E1,2.343042E1,4.8009277E1,1.4563164E1,6.62773E1,9.817123E0,6.2096558E1,0E0,0E0,0E0,0E0,0E0,0E0,0E0,0E0,0E0,0E0,0E0,0E0,0E0,0E0,0E0,0E0],"parents":[2147483647,0,0,1,1,2,2,3,3,4,4,5,5,7,7,9,9,10,10,12,12,13,13,14,14,15,15,16,16,17,17,18,18,19,19,20,20],"right_children":[2,4,6,8,10,12,-1,14,-1,16,18,-1,20,22,24,26,28,30,32,34,36,-1,-1,-1,-1,-1,-1,-1,-1,-1,-1,-1,-1,-1,-1,-1,-1],"split_conditions":[1E0,3E0,8.01381E-1,8.01381E-1,8.01381E-1,3E0,-1.6943438E-1,1.7E1,-1.6910462E-1,1E0,7E0,-1.718076E-1,7E0,1.1E1,2.1E1,2.5067238E1,6E1,2.5067238E1,1.1E1,2.1467018E1,1.1E1,-8.844503E-2,-4.786175E-2,-1.6242033E-1,-5.779434E-2,1.15172125E-1,4.3926254E-2,-4.001628E-3,1.1784007E-1,4.4314973E-2,-1.3791834E-1,-6.295993E-2,-1.5355014E-4,-4.678439E-2,-1.2560819E-1,-1.4186738E-1,-8.297675E-2],"split_indices":[5,3,4,4,4,3,0,0,0,8,0,0,0,0,0,7,6,7,0,7,0,0,0,0,0,0,0,0,0,0,0,0,0,0,0,0,0],"split_type":[0,0,0,0,0,0,0,0,0,0,0,0,0,0,0,0,0,0,0,0,0,0,0,0,0,0,0,0,0,0,0,0,0,0,0,0,0],"sum_hessian":[7.3132324E3,5.3671235E3,1.9461088E3,1.1079943E3,4.2591294E3,1.5444581E3,4.016506E2,8.921936E2,2.1580069E2,3.132979E3,1.1261501E3,2.1856775E2,1.3258904E3,6.3518976E2,2.570038E2,2.985024E3,1.479552E2,2.8943738E2,8.3671277E2,3.5801697E2,9.678734E2,4.090576E2,2.2613219E2,1.4553148E2,1.1147234E2,2.9364824E3,4.854135E1,1.01546555E2,4.6408638E1,2.8593033E2,3.5070405E0,2.3160864E2,6.051041E2,3.4200046E2,1.601652E1,2.4137607E2,7.264973E2],"tree_param":{"num_deleted":"0","num_feature":"9","num_nodes":"37","size_leaf_vector":"1"}},{"base_weights":[1.429032E-2,4.0305027E-1,-1.0172836E0,-9.2532444E-1,7.686436E-1,-8.737871E-1,-1.5707566E-1,-7.7090466E-1,-1.5657014E-1,1.0762137E0,-1.4611747E-2,-1.602827E-1,-7.572342E-1,-4.7317088E-1,-8.887465E-1,1.115705E0,3.2226473E-1,1.5155444E-1,-4.2792735E-1,-6.227147E-1,-1.0644656E0,-5.399471E-2,-1.5020977E-2,-1.29183E-1,-7.5614765E-2,1.1279904E-1,4.0321913E-2,-3.5988817E-3,1.15420096E-1,2.062109E-2,-1.0702417E-1,-1.1204846E-1,4.5046564E-2,-7.786166E-2,-3.3514418E-2,-1.4856906E-1,-4.610094E-2],"categories":[],"categories_nodes":[],"categories_segments":[],"categories_sizes":[],"default_left":[0,0,0,0,0,0,0,0,0,0,0,0,0,0,0,0,0,0,0,0,0,0,0,0,0,0,0,0,0,0,0,0,0,0,0,0,0],"id":6,"left_children":[1,3,5,7,9,11,-1,13,-1,15,17,-1,19,21,23,25,27,29,31,33,35,-1,-1,-1,-1,-1,-1,-1,-1,-1,-1,-1,-1,-1,-1,-1,-1],"loss_changes":[2.8399783E3,2.498523E3,1.5257166E2,1.0860498E2,9.7178394E2,1.297699E2,0E0,3.1040588E1,0E0,8.5880615E1,7.824652E1,0E0,5.4342224E1,5.448635E0,3.3299103E1,2.3632568E1,4.3427486E1,5.4490395E1,1.9924033E2,4.1345947E1,1.0197638E2,0E0,0E0,0E0,0E0,0E0,0E0,0E0,0E0,0E0,0E0,0E0,0E0,0E0,0E0,0E0,0E0],"parents":[2147483647,0,0,1,1,2,2,3,3,4,4,5,5,7,7,9,9,10,10,12,12,13,13,14,14,15,15,16,16,17,17,18,18,19,19,20,20],"right_children":[2,4,6,8,10,12,-1,14,-1,16,18,-1,20,22,24,26,28,30,32,34,36,-1,-1,-1,-1,-1,-1,-1,-1,-1,-1,-1,-1,-1,-1,-1,-1],"split_conditions":[1E0,3E0,7.977355E-1,7.977355E-1,7.977355E-1,3E0,-1.5707566E-1,7E0,-1.5657014E-1,1E0,1.7E1,-1.602827E-1,1.7E1,6.6341376E-1,1.1E1,2.5067238E1,6E1,1E0,2.1E1,1.1E1,2.1E1,-5.399471E-2,-1.5020977E-2,-1.29183E-1,-7.5614765E-2,1.1279904E-1,4.0321913E-2,-3.5988817E-3,1.15420096E-1,2.062109E-2,-1.0702417E-1,-1.1204846E-1,4.5046564E-2,-7.786166E-2,-3.3514418E-2,-1.4856906E-1,-4.610094E-2],"split_indices":[5,3,4,4,4,3,0,0,0,8,0,0,0,4,0,7,6,8,0,0,0,0,0,0,0,0,0,0,0,0,0,0,0,0,0,0,0],"split_type":[0,0,0,0,0,0,0,0,0,0,0,0,0,0,0,0,0,0,0,0,0,0,0,0,0,0,0,0,0,0,0,0,0,0,0,0,0],"sum_hessian":[7.0796064E3,5.142288E3,1.9373184E3,1.1094817E3,4.0328064E3,1.5404987E3,3.9681964E2,8.956979E2,2.1378377E2,2.895444E3,1.137362E3,2.1057802E2,1.3299207E3,2.5540883E2,6.4028906E2,2.7508752E3,1.445689E2,8.1167566E2,3.2568643E2,9.270459E2,4.0287482E2,2.1109123E2,4.431759E1,1.5632841E2,4.8396063E2,2.7036729E3,4.7202324E1,1.0172163E2,4.284726E1,7.777161E2,3.3959534E1,1.8195268E2,1.4373376E2,6.000374E2,3.2700845E2,2.3640047E2,1.6647433E2],"tree_param":{"num_deleted":"0","num_feature":"9","num_nodes":"37","size_leaf_vector":"1"}},{"base_weights":[1.4678021E-2,3.810236E-1,-9.259642E-1,-8.375131E-1,7.332596E-1,-7.901671E-1,-1.4849399E-1,-6.932341E-1,-1.4808506E-1,1.0464842E0,-1.9042557E-2,-1.5116672E-1,-6.805124E-1,-5.807306E-1,-9.6809524E-1,1.0876942E0,2.9872602E-1,1.1547133E-2,-1.9300172E0,-3.6806628E-1,-7.972779E-1,-5.410251E-2,-1.3520232E-1,-1.3729095E-1,-4.3630805E-2,1.10067084E-1,3.7567697E-2,-3.2372654E-3,1.1327064E-1,1.6451707E-2,-3.571741E-2,-5.623504E-2,-2.0471852E-1,-3.334386E-2,-1.1825599E-1,-1.20853834E-1,-6.620561E-2],"categories":[],"categories_nodes":[],"categories_segments":[],"categories_sizes":[],"default_left":[0,0,0,0,0,0,0,0,0,0,0,0,0,0,0,0,0,0,0,0,0,0,0,0,0,0,0,0,0,0,0,0,0,0,0,0,0],"id":7,"left_children":[1,3,5,7,9,11,-1,13,-1,15,17,-1,19,21,23,25,27,29,31,33,35,-1,-1,-1,-1,-1,-1,-1,-1,-1,-1,-1,-1,-1,-1,-1,-1],"loss_changes":[2.3592908E3,2.11551E3,1.444967E2,1.01576965E2,9.0086597E2,1.2129224E2,0E0,2.7416473E1,0E0,8.2850586E1,6.5773415E1,0E0,4.8737427E1,1.9006317E1,5.5648422E1,2.321997E1,3.9347744E1,6.255736E1,1.6894989E0,9.969883E0,5.355829E1,0E0,0E0,0E0,0E0,0E0,0E0,0E0,0E0,0E0,0E0,0E0,0E0,0E0,0E0,0E0,0E0],"parents":[2147483647,0,0,1,1,2,2,3,3,4,4,5,5,7,7,9,9,10,10,12,12,13,13,14,14,15,15,16,16,17,17,18,18,19,19,20,20],"right_children":[2,4,6,8,10,12,-1,14,-1,16,18,-1,20,22,24,26,28,30,32,34,36,-1,-1,-1,-1,-1,-1,-1,-1,-1,-1,-1,-1,-1,-1,-1,-1],"split_conditions":[1E0,3E0,8.01381E-1,8.01381E-1,8.01381E-1,3E0,-1.4849399E-1,1.7E1,-1.4808506E-1,1E0,2.5067238E1,-1.5116672E-1,7E0,1E0,2.1E1,2.5067238E1,6E1,1.7E1,3E0,1E0,1.1E1,-5.410251E-2,-1.3520232E-1,-1.3729095E-1,-4.3630805E-2,1.10067084E-1,3.7567697E-2,-3.2372654E-3,1.1327064E-1,1.6451707E-2,-3.571741E-2,-5.623504E-2,-2.0471852E-1,-3.334386E-2,-1.1825599E-1,-1.20853834E-1,-6.620561E-2],"split_indices":[5,3,4,4,4,3,0,0,0,8,7,0,0,8,0,7,6,0,0,8,0,0,0,0,0,0,0,0,0,0,0,0,0,0,0,0,0],"split_type":[0,0,0,0,0,0,0,0,0,0,0,0,0,0,0,0,0,0,0,0,0,0,0,0,0,0,0,0,0,0,0,0,0,0,0,0,0],"sum_hessian":[6.8444365E3,4.9263857E3,1.9180511E3,1.1044025E3,3.821983E3,1.5450996E3,3.7295154E2,9.037902E2,2.0061227E2,2.6981885E3,1.1237946E3,2.0215892E2,1.3429407E3,6.435085E2,2.6028174E2,2.556824E3,1.4136449E2,1.1070673E3,1.6727283E1,3.6647186E2,9.764689E2,6.136212E2,2.988727E1,1.4688571E2,1.13396034E2,2.5105232E3,4.630091E1,1.0187876E2,3.9485718E1,7.8284515E2,3.2422214E2,1.7775841E0,1.4949699E1,3.528788E2,1.359305E1,2.3965388E2,7.3681494E2],"tree_param":{"num_deleted":"0","num_feature":"9","num_nodes":"37","size_leaf_vector":"1"}},{"base_weights":[1.4765672E-2,3.600005E-1,-8.4671754E-1,-7.604247E-1,6.99052E-1,-7.1607125E-1,-1.4088558E-1,-6.232264E-1,-1.404292E-1,1.0238236E0,-1.2114222E-2,-1.4378574E-1,-6.120724E-1,-3.6357453E-1,-7.275679E-1,1.0676838E0,2.7675292E-1,3.7445155E-1,-1.4040367E-1,-4.9263942E-1,-8.8723135E-1,-3.371164E-2,-1.2220015E-1,-1.1284864E-1,-5.9998225E-2,1.0817176E-1,3.4334663E-2,-2.9124517E-3,1.1134612E-1,4.219717E-2,-4.5357905E-2,-5.8725532E-2,3.001499E-3,-6.339115E-2,-2.3640892E-2,-1.27871E-1,-3.391066E-2],"categories":[],"categories_nodes":[],"categories_segments":[],"categories_sizes":[],"default_left":[0,0,0,0,0,0,0,0,0,0,0,0,0,0,0,0,0,0,0,0,0,0,0,0,0,0,0,0,0,0,0,0,0,0,0,0,0],"id":8,"left_children":[1,3,5,7,9,11,-1,13,-1,15,17,-1,19,21,23,25,27,29,31,33,35,-1,-1,-1,-1,-1,-1,-1,-1,-1,-1,-1,-1,-1,-1,-1,-1],"loss_changes":[1.9669088E3,1.7940653E3,1.379458E2,9.605615E1,8.372689E2,1.14515564E2,0E0,2.4290436E1,0E0,8.124634E1,5.6461205E1,0E0,4.3777405E1,5.5343246E0,3.2342743E1,2.3519043E1,3.569638E1,1.1354347E1,6.510843E1,3.3892426E1,8.6680145E1,0E0,0E0,0E0,0E0,0E0,0E0,0E0,0E0,0E0,0E0,0E0,0E0,0E0,0E0,0E0,0E0],"parents":[2147483647,0,0,1,1,2,2,3,3,4,4,5,5,7,7,9,9,10,10,12,12,13,13,14,14,15,15,16,16,17,17,18,18,19,19,20,20],"right_children":[2,4,6,8,10,12,-1,14,-1,16,18,-1,20,22,24,26,28,30,32,34,36,-1,-1,-1,-1,-1,-1,-1,-1,-1,-1,-1,-1,-1,-1,-1,-1],"split_conditions":[1E0,3E0,8.01381E-1,8.01381E-1,7.977355E-1,3E0,-1.4088558E-1,7E0,-1.404292E-1,1E0,7E0,-1.4378574E-1,1.7E1,2.3729795E1,1.1E1,2.5067238E1,6E1,1E0,1.1E1,1.1E1,2.1E1,-3.371164E-2,-1.2220015E-1,-1.1284864E-1,-5.9998225E-2,1.0817176E-1,3.4334663E-2,-2.9124517E-3,1.1134612E-1,4.219717E-2,-4.5357905E-2,-5.8725532E-2,3.001499E-3,-6.339115E-2,-2.3640892E-2,-1.27871E-1,-3.391066E-2],"split_indices":[5,3,4,4,4,3,0,0,0,8,0,0,0,7,0,7,6,8,0,0,0,0,0,0,0,0,0,0,0,0,0,0,0,0,0,0,0],"split_type":[0,0,0,0,0,0,0,0,0,0,0,0,0,0,0,0,0,0,0,0,0,0,0,0,0,0,0,0,0,0,0,0,0,0,0,0,0],"sum_hessian":[6.6113457E3,4.7202944E3,1.8910509E3,1.0962844E3,3.6240103E3,1.5362788E3,3.5477203E2,9.053385E2,1.9094588E2,2.4875632E3,1.136447E3,1.9186266E2,1.3444161E3,2.608079E2,6.4453064E2,2.349213E3,1.3835033E2,2.8269696E2,8.537501E2,9.394412E2,4.0497495E2,2.5436078E2,6.4471087E0,1.5370169E2,4.9082895E2,2.3040786E3,4.5134285E1,1.0201987E2,3.6330456E1,2.6781747E2,1.487948E1,2.3503175E2,6.187184E2,6.0461456E2,3.3482666E2,2.3546767E2,1.6950726E2],"tree_param":{"num_deleted":"0","num_feature":"9","num_nodes":"37","size_leaf_vector":"1"}},{"base_weights":[1.4768103E-2,3.4034657E-1,-7.767337E-1,-6.930138E-1,6.666103E-1,-6.5073055E-1,-1.3454968E-1,-5.602893E-1,-1.3314311E-1,9.99729E-1,-1.0771991E-2,-1.3770811E-1,-5.5191016E-1,-4.5729768E-1,-8.145893E-1,1.0460795E0,2.5623268E-1,3.447308E-2,-1.0570467E0,-2.6440978E-1,-6.6136533E-1,-5.8665473E-2,-2.2537908E-2,-1.1922693E-1,-3.2813553E-2,1.0611228E-1,3.1634025E-2,-2.6206349E-3,1.09609E-1,6.3711735E-3,-1.6466372E-1,-1.9444415E-1,1.2052431E-2,-2.3029737E-2,-9.539806E-2,-1.0523396E-1,-5.3614568E-2],"categories":[],"categories_nodes":[],"categories_segments":[],"categories_sizes":[],"default_left":[0,0,0,0,0,0,0,0,0,0,0,0,0,0,0,0,0,0,0,0,0,0,0,0,0,0,0,0,0,0,0,0,0,0,0,0,0],"id":9,"left_children":[1,3,5,7,9,11,-1,13,-1,15,17,-1,19,21,23,25,27,29,31,33,35,-1,-1,-1,-1,-1,-1,-1,-1,-1,-1,-1,-1,-1,-1,-1,-1],"loss_changes":[1.6444719E3,1.5248795E3,1.3241638E2,9.123224E1,7.7556775E2,1.0866815E2,0E0,2.3209534E1,0E0,7.913037E1,5.3719723E1,0E0,4.2106934E1,1.9161896E1,4.7058228E1,2.3469238E1,3.2414585E1,5.3583065E1,4.9388184E1,8.534418E0,4.7045746E1,0E0,0E0,0E0,0E0,0E0,0E0,0E0,0E0,0E0,0E0,0E0,0E0,0E0,0E0,0E0,0E0],"parents":[2147483647,0,0,1,1,2,2,3,3,4,4,5,5,7,7,9,9,10,10,12,12,13,13,14,14,15,15,16,16,17,17,18,18,19,19,20,20],"right_children":[2,4,6,8,10,12,-1,14,-1,16,18,-1,20,22,24,26,28,30,32,34,36,-1,-1,-1,-1,-1,-1,-1,-1,-1,-1,-1,-1,-1,-1,-1,-1],"split_conditions":[1E0,3E0,8.01381E-1,7.977355E-1,7.977355E-1,3E0,-1.3454968E-1,1.7E1,-1.3314311E-1,1E0,1E0,-1.3770811E-1,7E0,1.1E1,2.1E1,2.5067238E1,6E1,2.5067238E1,6E1,2.1467018E1,1.1E1,-5.8665473E-2,-2.2537908E-2,-1.1922693E-1,-3.2813553E-2,1.0611228E-1,3.1634025E-2,-2.6206349E-3,1.09609E-1,6.3711735E-3,-1.6466372E-1,-1.9444415E-1,1.2052431E-2,-2.3029737E-2,-9.539806E-2,-1.0523396E-1,-5.3614568E-2],"split_indices":[5,3,4,4,4,3,0,0,0,8,8,0,0,0,0,7,6,7,6,7,0,0,0,0,0,0,0,0,0,0,0,0,0,0,0,0,0],"split_type":[0,0,0,0,0,0,0,0,0,0,0,0,0,0,0,0,0,0,0,0,0,0,0,0,0,0,0,0,0,0,0,0,0,0,0,0,0],"sum_hessian":[6.3794165E3,4.520509E3,1.8589081E3,1.0844991E3,3.4360095E3,1.5235309E3,3.3537723E2,8.993958E2,1.8510329E2,2.3029858E3,1.1330236E3,1.8090517E2,1.3426257E3,6.421308E2,2.57265E2,2.1674568E3,1.355291E2,1.0869851E3,4.6038498E1,3.711529E2,9.7147284E2,4.1122992E2,2.3090088E2,1.4400748E2,1.1325753E2,2.1232332E3,4.4223583E1,1.021466E2,3.33825E1,1.0693485E3,1.7636507E1,2.5882622E1,2.0155878E1,3.549289E2,1.6224012E1,2.3386633E2,7.376065E2],"tree_param":{"num_deleted":"0","num_feature":"9","num_nodes":"37","size_leaf_vector":"1"}},{"base_weights":[1.4605161E-2,3.213218E-1,-7.1411806E-1,-6.324892E-1,6.345942E-1,-5.925165E-1,-1.2918301E-1,-5.077737E-1,-1.286593E-1,9.766027E-1,-9.861599E-3,-1.326309E-1,-4.9859026E-1,-2.6588136E-1,-6.0709316E-1,1.0256397E0,2.3707236E-1,1.298648E-1,-3.4073E-1,-3.8854924E-1,-7.547471E-1,-2.4183495E-2,-1.0580792E-1,-9.914634E-2,-4.8829656E-2,1.0417836E-1,2.910882E-2,-2.3583395E-3,1.08028166E-1,-5.450628E-3,4.65357E-2,-9.205356E-2,4.4300076E-2,-5.1752176E-2,-1.5793366E-2,-1.1263199E-1,-2.5023798E-2],"categories":[],"categories_nodes":[],"categories_segments":[],"categories_sizes":[],"default_left":[0,0,0,0,0,0,0,0,0,0,0,0,0,0,0,0,0,0,0,0,0,0,0,0,0,0,0,0,0,0,0,0,0,0,0,0,0],"id":10,"left_children":[1,3,5,7,9,11,-1,13,-1,15,17,-1,19,21,23,25,27,29,31,33,35,-1,-1,-1,-1,-1,-1,-1,-1,-1,-1,-1,-1,-1,-1,-1,-1],"loss_changes":[1.376839E3,1.2957959E3,1.2742273E2,8.682587E1,7.19411E2,1.0336151E2,0E0,2.151561E1,0E0,7.708447E1,5.240553E1,0E0,3.7467407E1,4.781101E0,2.8687866E1,2.3407227E1,2.94549E1,4.9326233E1,1.5334508E2,2.7850693E1,7.498163E1,0E0,0E0,0E0,0E0,0E0,0E0,0E0,0E0,0E0,0E0,0E0,0E0,0E0,0E0,0E0,0E0],"parents":[2147483647,0,0,1,1,2,2,3,3,4,4,5,5,7,7,9,9,10,10,12,12,13,13,14,14,15,15,16,16,17,17,18,18,19,19,20,20],"right_children":[2,4,6,8,10,12,-1,14,-1,16,18,-1,20,22,24,26,28,30,32,34,36,-1,-1,-1,-1,-1,-1,-1,-1,-1,-1,-1,-1,-1,-1,-1,-1],"split_conditions":[1E0,3E0,8.01381E-1,8.01381E-1,7.977355E-1,3E0,-1.2918301E-1,7E0,-1.286593E-1,1E0,1.7E1,-1.326309E-1,1.7E1,2.3729795E1,1.1E1,2.5067238E1,6E1,1.1E1,2.1E1,1.1E1,2.1E1,-2.4183495E-2,-1.0580792E-1,-9.914634E-2,-4.8829656E-2,1.0417836E-1,2.910882E-2,-2.3583395E-3,1.08028166E-1,-5.450628E-3,4.65357E-2,-9.205356E-2,4.4300076E-2,-5.1752176E-2,-1.5793366E-2,-1.1263199E-1,-2.5023798E-2],"split_indices":[5,3,4,4,4,3,0,0,0,8,0,0,0,7,0,7,6,0,0,0,0,0,0,0,0,0,0,0,0,0,0,0,0,0,0,0,0],"split_type":[0,0,0,0,0,0,0,0,0,0,0,0,0,0,0,0,0,0,0,0,0,0,0,0,0,0,0,0,0,0,0,0,0,0,0,0,0],"sum_hessian":[6.158009E3,4.3342847E3,1.8237238E3,1.0713522E3,3.2629326E3,1.5082751E3,3.1544858E2,9.0128406E2,1.7006818E2,2.1313328E3,1.1315997E3,1.6966415E2,1.3386111E3,2.6341492E2,6.3786914E2,1.9984332E3,1.3289955E2,7.960386E2,3.355612E2,9.3812415E2,4.004869E2,2.5692157E2,6.4933453E0,1.4886519E2,4.8900397E2,1.955047E3,4.3386257E1,1.02260475E2,3.0639082E1,5.142616E2,2.8177698E2,1.9277286E2,1.4278831E2,6.008518E2,3.3727234E2,2.2991855E2,1.7056836E2],"tree_param":{"num_deleted":"0","num_feature":"9","num_nodes":"37","size_leaf_vector":"1"}},{"base_weights":[1.4457053E-2,3.0323014E-1,-6.576238E-1,-5.7839054E-1,6.035466E-1,-5.403332E-1,-1.2456763E-1,-4.5960733E-1,-1.2398422E-1,9.541671E-1,-8.437169E-3,-1.2833722E-1,-4.5111042E-1,-3.6407167E-1,-6.972124E-1,1.0060803E0,2.1919027E-1,3.5206163E-1,-1.255922E-1,-4.1663086E-1,-1.271384E0,-3.28017E-2,-1.0719389E-1,-1.0568763E-1,-2.4849791E-2,1.0234169E-1,2.6751805E-2,-2.1225817E-3,1.0657735E-1,3.7472155E-2,-9.468107E-2,-5.136388E-2,2.55356E-3,-1.5442207E-2,-5.1881474E-2,-1.7830488E-1,-2.4726192E-2],"categories":[],"categories_nodes":[],"categories_segments":[],"categories_sizes":[],"default_left":[0,0,0,0,0,0,0,0,0,0,0,0,0,0,0,0,0,0,0,0,0,0,0,0,0,0,0,0,0,0,0,0,0,0,0,0,0],"id":11,"left_children":[1,3,5,7,9,11,-1,13,-1,15,17,-1,19,21,23,25,27,29,31,33,35,-1,-1,-1,-1,-1,-1,-1,-1,-1,-1,-1,-1,-1,-1,-1,-1],"loss_changes":[1.1543682E3,1.1018569E3,1.2262213E2,8.2525024E1,6.6598596E2,9.8341125E1,0E0,2.0134613E1,0E0,7.506775E1,4.783205E1,0E0,3.7190277E1,1.60513E1,4.112982E1,2.332129E1,2.6778414E1,8.530708E0,5.013716E1,3.4252213E1,2.7494598E1,0E0,0E0,0E0,0E0,0E0,0E0,0E0,0E0,0E0,0E0,0E0,0E0,0E0,0E0,0E0,0E0],"parents":[2147483647,0,0,1,1,2,2,3,3,4,4,5,5,7,7,9,9,10,10,12,12,13,13,14,14,15,15,16,16,17,17,18,18,19,19,20,20],"right_children":[2,4,6,8,10,12,-1,14,-1,16,18,-1,20,22,24,26,28,30,32,34,36,-1,-1,-1,-1,-1,-1,-1,-1,-1,-1,-1,-1,-1,-1,-1,-1],"split_conditions":[1E0,3E0,8.01381E-1,8.01381E-1,7.977355E-1,3E0,-1.2456763E-1,1.7E1,-1.2398422E-1,1E0,7E0,-1.2833722E-1,1E0,1E0,2.1E1,2.5067238E1,6E1,2.5067238E1,1.1E1,7E0,6E1,-3.28017E-2,-1.0719389E-1,-1.0568763E-1,-2.4849791E-2,1.0234169E-1,2.6751805E-2,-2.1225817E-3,1.0657735E-1,3.7472155E-2,-9.468107E-2,-5.136388E-2,2.55356E-3,-1.5442207E-2,-5.1881474E-2,-1.7830488E-1,-2.4726192E-2],"split_indices":[5,3,4,4,4,3,0,0,0,8,0,0,8,8,0,7,6,7,0,0,6,0,0,0,0,0,0,0,0,0,0,0,0,0,0,0,0],"split_type":[0,0,0,0,0,0,0,0,0,0,0,0,0,0,0,0,0,0,0,0,0,0,0,0,0,0,0,0,0,0,0,0,0,0,0,0,0],"sum_hessian":[5.9459053E3,4.1593193E3,1.7865863E3,1.0565994E3,3.1027197E3,1.4910968E3,2.9548956E2,8.971792E2,1.5942015E2,1.9722247E3,1.130495E3,1.5841849E2,1.3326783E3,6.416988E2,2.5548042E2,1.8417675E3,1.3045726E2,2.767868E2,8.537082E2,1.2803671E3,5.2311275E1,6.119909E2,2.970792E1,1.4105971E2,1.14420715E2,1.7991495E3,4.2617935E1,1.023628E2,2.809447E1,2.727401E2,4.0466776E0,2.3861765E2,6.150906E2,3.5974783E2,9.206192E2,3.4389023E1,1.7922255E1],"tree_param":{"num_deleted":"0","num_feature":"9","num_nodes":"37","size_leaf_vector":"1"}},{"base_weights":[1.4170555E-2,2.8586096E-1,-6.0536975E-1,-5.291026E-1,5.735398E-1,-4.924138E-1,-1.2054241E-1,-4.1614613E-1,-1.19896926E-1,9.321866E-1,-7.5456905E-3,-1.2466744E-1,-4.078229E-1,-3.2840708E-1,-6.369195E-1,9.8715705E-1,2.0251505E-1,3.3822257E-2,-9.419653E-1,-3.763329E-1,-1.1647949E0,-4.4599842E-2,-1.2103256E-2,-9.7591236E-2,-2.2388028E-2,1.0057783E-1,2.4555737E-2,-1.910593E-3,1.0523426E-1,1.6594946E-2,-2.6950283E-2,-1.7022139E-1,1.0778732E-2,-1.3887313E-2,-4.69427E-2,-1.6436346E-1,-2.2413453E-2],"categories":[],"categories_nodes":[],"categories_segments":[],"categories_sizes":[],"default_left":[0,0,0,0,0,0,0,0,0,0,0,0,0,0,0,0,0,0,0,0,0,0,0,0,0,0,0,0,0,0,0,0,0,0,0,0,0],"id":12,"left_children":[1,3,5,7,9,11,-1,13,-1,15,17,-1,19,21,23,25,27,29,31,33,35,-1,-1,-1,-1,-1,-1,-1,-1,-1,-1,-1,-1,-1,-1,-1,-1],"loss_changes":[9.6738007E2,9.3694836E2,1.1815796E2,7.840851E1,6.154814E2,9.3675446E1,0E0,1.7106049E1,0E0,7.304822E1,4.3638603E1,0E0,3.1235886E1,1.5595222E1,3.5227585E1,2.3201172E1,2.4352789E1,4.337814E1,3.837911E1,2.8168503E1,2.332051E1,0E0,0E0,0E0,0E0,0E0,0E0,0E0,0E0,0E0,0E0,0E0,0E0,0E0,0E0,0E0,0E0],"parents":[2147483647,0,0,1,1,2,2,3,3,4,4,5,5,7,7,9,9,10,10,12,12,13,13,14,14,15,15,16,16,17,17,18,18,19,19,20,20],"right_children":[2,4,6,8,10,12,-1,14,-1,16,18,-1,20,22,24,26,28,30,32,34,36,-1,-1,-1,-1,-1,-1,-1,-1,-1,-1,-1,-1,-1,-1,-1,-1],"split_conditions":[1E0,3E0,8.01381E-1,8.01381E-1,7.977355E-1,3E0,-1.2054241E-1,1.7E1,-1.19896926E-1,1E0,1E0,-1.2466744E-1,1E0,1.1E1,2.1E1,2.5067238E1,6E1,1.7E1,6E1,7E0,6E1,-4.4599842E-2,-1.2103256E-2,-9.7591236E-2,-2.2388028E-2,1.0057783E-1,2.4555737E-2,-1.910593E-3,1.0523426E-1,1.6594946E-2,-2.6950283E-2,-1.7022139E-1,1.0778732E-2,-1.3887313E-2,-4.69427E-2,-1.6436346E-1,-2.2413453E-2],"split_indices":[5,3,4,4,4,3,0,0,0,8,8,0,8,0,0,7,6,0,6,0,6,0,0,0,0,0,0,0,0,0,0,0,0,0,0,0,0],"split_type":[0,0,0,0,0,0,0,0,0,0,0,0,0,0,0,0,0,0,0,0,0,0,0,0,0,0,0,0,0,0,0,0,0,0,0,0,0],"sum_hessian":[5.7451313E3,3.9941108E3,1.7510206E3,1.0418425E3,2.9522683E3,1.4751539E3,2.7586667E2,8.928985E2,1.4894406E2,1.8251678E3,1.1271005E3,1.4737115E2,1.3277828E3,6.407437E2,2.521548E2,1.6969722E3,1.2819579E2,1.0802406E3,4.6859825E1,1.2761906E3,5.1592278E1,4.081515E2,2.3259221E2,1.3774272E2,1.1441207E2,1.655058E3,4.191414E1,1.0245479E2,2.5740995E1,7.527839E2,3.2745676E2,2.6816977E1,2.0042847E1,3.6011597E2,9.160746E2,3.369344E1,1.7898836E1],"tree_param":{"num_deleted":"0","num_feature":"9","num_nodes":"37","size_leaf_vector":"1"}},{"base_weights":[1.3808389E-2,2.6902634E-1,-5.5758685E-1,-4.843428E-1,5.438218E-1,-4.490467E-1,-1.1698518E-1,-3.7525928E-1,-1.1514822E0,9.104583E-1,-6.8213847E-3,-1.2150126E-1,-3.6899942E-1,-1.555777E-1,-4.683579E-1,-6.2142706E-1,-1.1627475E-1,9.68656E-1,1.8698122E-1,1.7854556E-2,-1.4321188E0,-2.7450204E-1,-5.937957E-1,-2.1589411E-2,1.26241045E-2,-8.562906E-2,-3.519692E-2,-1.05181016E-1,1.3253746E-2,9.886536E-2,2.2513503E-2,-1.7199315E-3,1.0397966E-1,5.699021E-3,-8.410441E-2,-3.8128126E-2,-1.55145E-1,-4.0956754E-2,-3.7589376E-3,-9.6190594E-2,-1.1956932E-2],"categories":[],"categories_nodes":[],"categories_segments":[],"categories_sizes":[],"default_left":[0,0,0,0,0,0,0,0,0,0,0,0,0,0,0,0,0,0,0,0,0,0,0,0,0,0,0,0,0,0,0,0,0,0,0,0,0,0,0,0,0],"id":13,"left_children":[1,3,5,7,9,11,-1,13,15,17,19,-1,21,23,25,27,-1,29,31,33,35,37,39,-1,-1,-1,-1,-1,-1,-1,-1,-1,-1,-1,-1,-1,-1,-1,-1,-1,-1],"loss_changes":[8.107084E2,7.9580786E2,1.1354108E2,7.434927E1,5.6855896E2,8.9044556E1,0E0,1.8020256E1,1.3684082E-1,7.1000244E1,3.9649788E1,0E0,2.793953E1,4.528665E0,2.7730362E1,1.8083252E0,0E0,2.303894E1,2.2150831E1,3.7306705E1,1.8142853E0,2.9847664E1,6.8083466E1,0E0,0E0,0E0,0E0,0E0,0E0,0E0,0E0,0E0,0E0,0E0,0E0,0E0,0E0,0E0,0E0,0E0,0E0],"parents":[2147483647,0,0,1,1,2,2,3,3,4,4,5,5,7,7,8,8,9,9,10,10,12,12,13,13,14,14,15,15,17,17,18,18,19,19,20,20,21,21,22,22],"right_children":[2,4,6,8,10,12,-1,14,16,18,20,-1,22,24,26,28,-1,30,32,34,36,38,40,-1,-1,-1,-1,-1,-1,-1,-1,-1,-1,-1,-1,-1,-1,-1,-1,-1,-1],"split_conditions":[1E0,3E0,8.01381E-1,7.977355E-1,7.977355E-1,3E0,-1.1698518E-1,7E0,8.01381E-1,1E0,2.5067238E1,-1.2150126E-1,1.7E1,6.6341376E-1,1.1E1,8E0,-1.1627475E-1,2.5067238E1,6E1,1E0,8.166267E-1,1.1E1,2.1E1,-2.1589411E-2,1.26241045E-2,-8.562906E-2,-3.519692E-2,-1.05181016E-1,1.3253746E-2,9.886536E-2,2.2513503E-2,-1.7199315E-3,1.0397966E-1,5.699021E-3,-8.410441E-2,-3.8128126E-2,-1.55145E-1,-4.0956754E-2,-3.7589376E-3,-9.6190594E-2,-1.1956932E-2],"split_indices":[5,3,4,4,4,3,0,0,4,8,7,0,0,4,0,2,0,7,6,8,4,0,0,0,0,0,0,0,0,0,0,0,0,0,0,0,0,0,0,0,0],"split_type":[0,0,0,0,0,0,0,0,0,0,0,0,0,0,0,0,0,0,0,0,0,0,0,0,0,0,0,0,0,0,0,0,0,0,0,0,0,0,0,0,0],"sum_hessian":[5.55723E3,3.8417932E3,1.7154365E3,1.0265846E3,2.8152087E3,1.4585953E3,2.5684113E2,8.8366034E2,1.4292422E2,1.6895781E3,1.1256305E3,1.3666649E2,1.3219288E3,2.638154E2,6.19845E2,4.1431556E0,1.3878107E2,1.5634711E3,1.26107124E2,1.107445E3,1.8185541E1,9.322578E2,3.8967105E2,2.17499E2,4.6316402E1,1.4158243E2,4.7826254E2,2.3860786E0,1.7570769E0,1.5222006E3,4.1270462E1,1.0253749E2,2.356963E1,1.0600763E3,4.736865E1,2.2823327E0,1.5903208E1,5.9329034E2,3.389675E2,2.1880164E2,1.7086942E2],"tree_param":{"num_deleted":"0","num_feature":"9","num_nodes":"41","size_leaf_vector":"1"}},{"base_weights":[1.3342028E-2,2.527972E-1,-5.1430833E-1,-4.436448E-1,5.1478565E-1,-4.1024232E-1,-1.13801256E-1,-3.420525E-1,-1.1302263E0,8.8881063E-1,-6.345395E-3,-1.1874608E-1,-3.3460087E-1,-1.4203317E-1,-4.275486E-1,-1.143046E-1,-6.353724E-1,9.50391E-1,1.7252825E-1,3.1795433E-1,-1.0825308E-1,-3.0540007E-1,-1.051536E0,-1.2000339E-2,-8.937227E-2,-7.953238E-2,-3.2034602E-2,-2.0956276E-2,-8.523416E-2,9.718549E-2,2.0617846E-2,-1.5484133E-3,1.02796964E-1,7.147495E-2,2.5060428E-2,-2.1551428E-2,4.3087162E-2,-2.894406E-2,-1.633527E-1,-1.5164709E-1,-1.7121088E-2],"categories":[],"categories_nodes":[],"categories_segments":[],"categories_sizes":[],"default_left":[0,0,0,0,0,0,0,0,0,0,0,0,0,0,0,0,0,0,0,0,0,0,0,0,0,0,0,0,0,0,0,0,0,0,0,0,0,0,0,0,0],"id":14,"left_children":[1,3,5,7,9,11,-1,13,15,17,19,-1,21,23,25,-1,27,29,31,33,35,37,39,-1,-1,-1,-1,-1,-1,-1,-1,-1,-1,-1,-1,-1,-1,-1,-1,-1,-1],"loss_changes":[6.797969E2,6.754752E2,1.0854346E2,7.021272E1,5.2426013E2,8.431349E1,0E0,1.5041512E1,9.866333E-2,6.89032E1,3.7207928E1,0E0,2.7198074E1,4.296688E0,2.4117935E1,0E0,3.327484E-1,2.2828125E1,2.0149456E1,7.0150433E0,4.962829E1,2.6329094E1,2.062873E1,0E0,0E0,0E0,0E0,0E0,0E0,0E0,0E0,0E0,0E0,0E0,0E0,0E0,0E0,0E0,0E0,0E0,0E0],"parents":[2147483647,0,0,1,1,2,2,3,3,4,4,5,5,7,7,8,8,9,9,10,10,12,12,13,13,14,14,16,16,17,17,18,18,19,19,20,20,21,21,22,22],"right_children":[2,4,6,8,10,12,-1,14,16,18,20,-1,22,24,26,-1,28,30,32,34,36,38,40,-1,-1,-1,-1,-1,-1,-1,-1,-1,-1,-1,-1,-1,-1,-1,-1,-1,-1],"split_conditions":[1E0,3E0,8.01381E-1,8.01381E-1,7.977355E-1,3E0,-1.13801256E-1,7E0,2.1107298E1,1E0,7E0,-1.1874608E-1,1E0,2.3729795E1,1.1E1,-1.143046E-1,8.709592E-1,2.5067238E1,6E1,8.2878196E-1,2.1E1,2.5067238E1,6E1,-1.2000339E-2,-8.937227E-2,-7.953238E-2,-3.2034602E-2,-2.0956276E-2,-8.523416E-2,9.718549E-2,2.0617846E-2,-1.5484133E-3,1.02796964E-1,7.147495E-2,2.5060428E-2,-2.1551428E-2,4.3087162E-2,-2.894406E-2,-1.633527E-1,-1.5164709E-1,-1.7121088E-2],"split_indices":[5,3,4,4,4,3,0,0,7,8,0,0,8,7,0,0,4,7,6,4,0,7,6,0,0,0,0,0,0,0,0,0,0,0,0,0,0,0,0,0,0],"split_type":[0,0,0,0,0,0,0,0,0,0,0,0,0,0,0,0,0,0,0,0,0,0,0,0,0,0,0,0,0,0,0,0,0,0,0,0,0,0,0,0,0],"sum_hessian":[5.378299E3,3.699799E3,1.6785001E3,1.0111562E3,2.6886428E3,1.4399071E3,2.3859296E2,8.8212744E2,1.2902876E2,1.5648306E3,1.1238123E3,1.2640394E2,1.3135032E3,2.649454E2,6.1718207E2,1.2449373E2,4.535024E0,1.4406481E3,1.24182434E2,2.6820056E2,8.556117E2,1.263468E3,5.0035114E1,2.5852835E2,6.417051E0,1.3784938E2,4.7933267E2,2.1943667E0,2.3406577E0,1.3999655E3,4.0682564E1,1.0261188E2,2.1570557E1,3.7522583E1,2.3067796E2,7.1413226E2,1.4147948E2,1.2496693E3,1.3798735E1,3.226961E1,1.7765503E1],"tree_param":{"num_deleted":"0","num_feature":"9","num_nodes":"41","size_leaf_vector":"1"}},{"base_weights":[1.2900265E-2,2.3732288E-1,-4.7339517E-1,-4.0641388E-1,4.8673475E-1,-3.739728E-1,-1.10915795E-1,-3.0847245E-1,-1.0883707E0,8.6709696E-1,-5.4262904E-3,-1.1632937E-1,-3.027589E-1,-2.254108E-1,-5.20799E-1,-5.694755E-1,-1.1009043E0,9.32197E-1,1.590979E-1,1.1483502E-1,-2.8036323E-1,-7.586204E-2,-3.9351925E-1,-1.9173002E-2,-8.972915E-2,-8.5280284E-2,-1.3355277E-2,-9.9416964E-2,1.4364073E-2,-1.1141541E-1,-6.0933262E-2,9.552149E-2,1.8861484E-2,-1.3941376E-3,1.01671554E-1,-6.1557707E-3,4.3635074E-2,-7.441505E-2,3.9622787E-2,2.665621E-2,-1.34047E-2,-7.962787E-2,-2.7264168E-2],"categories":[],"categories_nodes":[],"categories_segments":[],"categories_sizes":[],"default_left":[0,0,0,0,0,0,0,0,0,0,0,0,0,0,0,0,0,0,0,0,0,0,0,0,0,0,0,0,0,0,0,0,0,0,0,0,0,0,0,0,0,0,0],"id":15,"left_children":[1,3,5,7,9,11,-1,13,15,17,19,-1,21,23,25,27,29,31,33,35,37,39,41,-1,-1,-1,-1,-1,-1,-1,-1,-1,-1,-1,-1,-1,-1,-1,-1,-1,-1,-1,-1],"loss_changes":[5.692767E2,5.732315E2,1.0369879E2,6.626958E1,4.816427E2,7.9798004E1,0E0,1.5285553E1,1.8496704E-1,6.674182E1,3.714982E1,0E0,2.6931702E1,1.40742855E1,3.1362503E1,1.6618798E0,1.0803223E-1,2.2564087E1,1.8328743E1,4.435877E1,1.0758167E2,7.513443E0,4.529956E1,0E0,0E0,0E0,0E0,0E0,0E0,0E0,0E0,0E0,0E0,0E0,0E0,0E0,0E0,0E0,0E0,0E0,0E0,0E0,0E0],"parents":[2147483647,0,0,1,1,2,2,3,3,4,4,5,5,7,7,8,8,9,9,10,10,12,12,13,13,14,14,15,15,16,16,17,17,18,18,19,19,20,20,21,21,22,22],"right_children":[2,4,6,8,10,12,-1,14,16,18,20,-1,22,24,26,28,30,32,34,36,38,40,42,-1,-1,-1,-1,-1,-1,-1,-1,-1,-1,-1,-1,-1,-1,-1,-1,-1,-1,-1,-1],"split_conditions":[1E0,3E0,8.01381E-1,7.977355E-1,7.977355E-1,3E0,-1.10915795E-1,1.7E1,8.01381E-1,1E0,1.7E1,-1.1632937E-1,7E0,1E0,2.1E1,8E0,2.1107298E1,2.5067238E1,6E1,1.1E1,2.1E1,1E0,1.1E1,-1.9173002E-2,-8.972915E-2,-8.5280284E-2,-1.3355277E-2,-9.9416964E-2,1.4364073E-2,-1.1141541E-1,-6.0933262E-2,9.552149E-2,1.8861484E-2,-1.3941376E-3,1.01671554E-1,-6.1557707E-3,4.3635074E-2,-7.441505E-2,3.9622787E-2,2.665621E-2,-1.34047E-2,-7.962787E-2,-2.7264168E-2],"split_indices":[5,3,4,4,4,3,0,0,4,8,0,0,0,8,0,2,7,7,6,0,0,0,0,0,0,0,0,0,0,0,0,0,0,0,0,0,0,0,0,0,0,0,0],"split_type":[0,0,0,0,0,0,0,0,0,0,0,0,0,0,0,0,0,0,0,0,0,0,0,0,0,0,0,0,0,0,0,0,0,0,0,0,0,0,0,0,0,0,0],"sum_hessian":[5.2141987E3,3.5680674E3,1.6461312E3,9.9620746E2,2.57186E3,1.424891E3,2.2124025E2,8.7237134E2,1.23836105E2,1.4502701E3,1.12159E3,1.1664835E2,1.3082426E3,6.2854694E2,2.4382443E2,4.0158324E0,1.19820274E2,1.3278578E3,1.2241226E2,7.806882E2,3.4090173E2,3.7431293E2,9.339297E2,5.997665E2,2.8780418E1,1.3062846E2,1.1319595E2,2.2698877E0,1.7459449E0,1.15442154E2,4.378123E0,1.2877115E3,4.0146248E1,1.0267878E2,1.9733484E1,5.0463794E2,2.7605026E2,2.0219914E2,1.3870258E2,5.3845516E1,3.204674E2,2.1430063E2,7.19629E2],"tree_param":{"num_deleted":"0","num_feature":"9","num_nodes":"43","size_leaf_vector":"1"}},{"base_weights":[1.24520715E-2,2.2242187E-1,-4.362318E-1,-3.7220326E-1,4.5942026E-1,-3.3952734E-1,-1.0700804E0,-2.7979106E-1,-1.0603801E0,8.4519464E-1,-4.573987E-3,-1.1418634E-1,-2.7226296E-1,-6.2567705E-1,-1.0826861E-1,-2.5265038E-1,-8.526047E-1,-5.3949785E-1,-1.0738358E0,9.1392887E-1,1.466351E-1,1.8124962E-2,-1.2993532E0,-1.8052587E-1,-4.9395698E-1,-1.1737341E-1,1.4601494E-1,-1.729065E-2,-4.581789E-2,-1.5972987E-1,1.4633372E-2,1.5133715E-2,-9.6481256E-2,-1.0877233E-1,-5.7953384E-2,9.385841E-2,1.7237116E-2,-1.2553078E-3,1.005906E-1,1.3111492E-2,-2.3511747E-2,-1.4575131E-1,-4.3101486E-2,-3.0294692E-2,3.1445378E-3,-8.535682E-2,-5.137948E-3,6.0733832E-2,-3.2634128E-2],"categories":[],"categories_nodes":[],"categories_segments":[],"categories_sizes":[],"default_left":[0,0,0,0,0,0,0,0,0,0,0,0,0,0,0,0,0,0,0,0,0,0,0,0,0,0,0,0,0,0,0,0,0,0,0,0,0,0,0,0,0,0,0,0,0,0,0,0,0],"id":16,"left_children":[1,3,5,7,9,11,13,15,17,19,21,-1,23,25,-1,27,29,31,33,35,37,39,41,43,45,-1,47,-1,-1,-1,-1,-1,-1,-1,-1,-1,-1,-1,-1,-1,-1,-1,-1,-1,-1,-1,-1,-1,-1],"loss_changes":[4.7679404E2,4.8601917E2,9.853021E1,6.2221146E1,4.413235E2,7.531407E1,5.163574E-1,1.3279396E1,2.338562E-1,6.450537E1,3.2948658E1,0E0,2.623169E1,3.6592922E0,0E0,1.3527115E1,2.9131813E1,1.5949526E0,1.3908386E-1,2.224347E1,1.6671352E1,3.1562218E1,2.024456E0,2.3804934E1,6.0151863E1,0E0,1.1382847E0,0E0,0E0,0E0,0E0,0E0,0E0,0E0,0E0,0E0,0E0,0E0,0E0,0E0,0E0,0E0,0E0,0E0,0E0,0E0,0E0,0E0,0E0],"parents":[2147483647,0,0,1,1,2,2,3,3,4,4,5,5,6,6,7,7,8,8,9,9,10,10,12,12,13,13,15,15,16,16,17,17,18,18,19,19,20,20,21,21,22,22,23,23,24,24,26,26],"right_children":[2,4,6,8,10,12,14,16,18,20,22,-1,24,26,-1,28,30,32,34,36,38,40,42,44,46,-1,48,-1,-1,-1,-1,-1,-1,-1,-1,-1,-1,-1,-1,-1,-1,-1,-1,-1,-1,-1,-1,-1,-1],"split_conditions":[1E0,3E0,7.977355E-1,7.977355E-1,7.977355E-1,3E0,8.01381E-1,1E0,8.01381E-1,1E0,2.5067238E1,-1.1418634E-1,1.7E1,1.4E1,-1.0826861E-1,1.7E1,6E1,8.775936E0,2.1107298E1,2.5067238E1,6E1,1.7E1,9.585162E-1,1.1E1,2.1E1,-1.1737341E-1,7E0,-1.729065E-2,-4.581789E-2,-1.5972987E-1,1.4633372E-2,1.5133715E-2,-9.6481256E-2,-1.0877233E-1,-5.7953384E-2,9.385841E-2,1.7237116E-2,-1.2553078E-3,1.005906E-1,1.3111492E-2,-2.3511747E-2,-1.4575131E-1,-4.3101486E-2,-3.0294692E-2,3.1445378E-3,-8.535682E-2,-5.137948E-3,6.0733832E-2,-3.2634128E-2],"split_indices":[5,3,4,4,4,3,4,8,4,8,7,0,0,0,0,0,6,7,7,7,6,0,4,0,0,0,2,0,0,0,0,0,0,0,0,0,0,0,0,0,0,0,0,0,0,0,0,0,0],"split_type":[0,0,0,0,0,0,0,0,0,0,0,0,0,0,0,0,0,0,0,0,0,0,0,0,0,0,0,0,0,0,0,0,0,0,0,0,0,0,0,0,0,0,0,0,0,0,0,0,0],"sum_hessian":[5.0589375E3,3.4465608E3,1.6123767E3,9.8204785E2,2.464513E3,1.4002762E3,2.1210042E2,8.6702545E2,1.1502244E2,1.3452351E3,1.1192778E3,1.0707691E2,1.2931993E3,7.2469893E0,2.0485344E2,8.291789E2,3.7846542E1,3.9313502E0,1.1109109E2,1.2244481E3,1.2078695E2,1.1009626E3,1.8315123E1,9.159805E2,3.7721887E2,3.9328701E0,3.314119E0,5.9872015E2,2.3045876E2,2.1339363E1,1.650718E1,1.7435284E0,2.1878219E0,1.0688755E2,4.2035365E0,1.1847906E3,3.965751E1,1.0273896E2,1.8047987E1,7.616273E2,3.3933536E2,1.4919217E1,3.3959048E0,5.803679E2,3.356126E2,2.0760403E2,1.6961484E2,1.5320703E0,1.782049E0],"tree_param":{"num_deleted":"0","num_feature":"9","num_nodes":"49","size_leaf_vector":"1"}},{"base_weights":[1.1843555E-2,2.0785692E-1,-4.0207884E-1,-3.4036863E-1,4.3245694E-1,-3.1196582E-1,-1.0581049E0,-2.5516984E-1,-1.0486325E0,8.1912476E-1,-8.803875E-3,-1.1229682E-1,-2.4908212E-1,-6.137559E-1,-1.0663926E-1,-2.3957425E-1,-1.2089101E-1,-1.0632534E-1,-5.509264E-1,8.904129E-1,1.3508628E-1,2.5845282E-2,-7.611429E-1,-2.217838E-1,-9.4053435E-1,-8.730229E-2,1.7808027E-4,-2.1372434E-2,-7.889121E-2,-1.2541987E-2,-7.895515E-2,9.162431E-2,1.629465E-2,-1.1303729E-3,9.954271E-2,4.841564E-3,-1.19819604E-1,-1.4340197E-1,1.715084E-2,-2.0686874E-2,-1.491863E-1,-1.4054824E-1,-1.077133E-2],"categories":[],"categories_nodes":[],"categories_segments":[],"categories_sizes":[],"default_left":[0,0,0,0,0,0,0,0,0,0,0,0,0,0,0,0,0,0,0,0,0,0,0,0,0,0,0,0,0,0,0,0,0,0,0,0,0,0,0,0,0,0,0],"id":17,"left_children":[1,3,5,7,9,11,13,15,17,19,21,-1,23,25,-1,27,-1,-1,29,31,33,35,37,39,41,-1,-1,-1,-1,-1,-1,-1,-1,-1,-1,-1,-1,-1,-1,-1,-1,-1,-1],"loss_changes":[3.990294E2,4.111067E2,9.310571E1,5.8297295E1,4.0404498E2,7.066319E1,4.6936035E-2,1.2615776E1,1.7021942E-1,6.1424683E1,2.8875153E1,0E0,2.4183334E1,9.340849E-1,0E0,1.1971657E1,0E0,0E0,4.1273618E-1,2.1324646E1,1.5162075E1,2.9319653E1,3.085104E1,2.3266022E1,1.8733871E1,0E0,0E0,0E0,0E0,0E0,0E0,0E0,0E0,0E0,0E0,0E0,0E0,0E0,0E0,0E0,0E0,0E0,0E0],"parents":[2147483647,0,0,1,1,2,2,3,3,4,4,5,5,6,6,7,7,8,8,9,9,10,10,12,12,13,13,15,15,18,18,19,19,20,20,21,21,22,22,23,23,24,24],"right_children":[2,4,6,8,10,12,14,16,18,20,22,-1,24,26,-1,28,-1,-1,30,32,34,36,38,40,42,-1,-1,-1,-1,-1,-1,-1,-1,-1,-1,-1,-1,-1,-1,-1,-1,-1,-1],"split_conditions":[1E0,3E0,8.01381E-1,8.01381E-1,8.01381E-1,3E0,1.8137637E0,2.5067238E1,2.1107298E1,1E0,1E0,-1.1229682E-1,1E0,1.5E1,-1.0663926E-1,1E0,-1.2089101E-1,-1.0632534E-1,8.709592E-1,2.5067238E1,6E1,2.5067238E1,6E1,2.5067238E1,6E1,-8.730229E-2,1.7808027E-4,-2.1372434E-2,-7.889121E-2,-1.2541987E-2,-7.895515E-2,9.162431E-2,1.629465E-2,-1.1303729E-3,9.954271E-2,4.841564E-3,-1.19819604E-1,-1.4340197E-1,1.715084E-2,-2.0686874E-2,-1.491863E-1,-1.4054824E-1,-1.077133E-2],"split_indices":[5,3,4,4,4,3,7,7,7,8,8,0,8,0,0,8,0,0,4,7,6,7,6,7,6,0,0,0,0,0,0,0,0,0,0,0,0,0,0,0,0,0,0],"split_type":[0,0,0,0,0,0,0,0,0,0,0,0,0,0,0,0,0,0,0,0,0,0,0,0,0,0,0,0,0,0,0,0,0,0,0,0,0,0,0,0,0,0,0],"sum_hessian":[4.9161035E3,3.3365667E3,1.5795366E3,9.695295E2,2.3670374E3,1.3900695E3,1.8946713E2,8.666396E2,1.028899E2,1.2611025E3,1.1059347E3,9.8814514E1,1.291255E3,4.843347E0,1.8462378E2,8.539273E2,1.27122555E1,9.884973E1,4.040172E0,1.1418057E3,1.1929686E2,1.0581663E3,4.7768456E1,1.2434834E3,4.7771572E1,3.1135805E0,1.7297668E0,8.1687695E2,3.7050343E1,1.9998019E0,2.0403702E0,1.1024032E3,3.9402546E1,1.02793106E2,1.6503748E1,1.0399508E3,1.8215431E1,2.7436424E1,2.0332033E1,1.2301996E3,1.3283863E1,3.0215319E1,1.7556252E1],"tree_param":{"num_deleted":"0","num_feature":"9","num_nodes":"43","size_leaf_vector":"1"}},{"base_weights":[1.1184607E-2,1.9392386E-1,-3.6964446E-1,-3.1086314E-1,4.0644106E-1,-2.842818E-1,-1.0351281E0,-2.291893E-1,-1.0099096E0,8.0057156E-1,-4.522517E-3,-1.1058996E-1,-2.2549215E-1,-5.88454E-1,-1.0438018E-1,-5.7805926E-2,-3.0476514E-1,-4.982082E-1,-1.0250107E0,8.767829E-1,1.2439926E-1,2.8998104E-1,-9.499155E-2,-1.3803147E-2,-3.1215245E-1,-8.494604E-2,1.66781E-4,4.944449E-3,-1.9960832E-2,-6.896112E-2,-1.961214E-2,-9.218237E-2,1.6528964E-2,-1.0403313E-1,-5.283335E-2,9.049371E-2,1.4306095E-2,-1.0179081E-3,9.851768E-2,6.732886E-2,2.2704033E-2,-4.5373403E-2,4.5950636E-3,1.4290899E-3,-6.307387E-2,-6.991178E-2,-1.9985016E-2],"categories":[],"categories_nodes":[],"categories_segments":[],"categories_sizes":[],"default_left":[0,0,0,0,0,0,0,0,0,0,0,0,0,0,0,0,0,0,0,0,0,0,0,0,0,0,0,0,0,0,0,0,0,0,0,0,0,0,0,0,0,0,0,0,0,0,0],"id":18,"left_children":[1,3,5,7,9,11,13,15,17,19,21,-1,23,25,-1,27,29,31,33,35,37,39,41,43,45,-1,-1,-1,-1,-1,-1,-1,-1,-1,-1,-1,-1,-1,-1,-1,-1,-1,-1,-1,-1,-1,-1],"loss_changes":[3.332588E2,3.4726266E2,8.7914795E1,5.4537468E1,3.6892053E2,6.629318E1,6.825256E-2,1.1124321E1,2.6251984E-1,5.9803894E1,2.976175E1,0E0,2.3603615E1,8.7132335E-1,0E0,4.0322266E0,2.4814957E1,1.5054327E0,1.8273163E-1,2.1451477E1,1.3787409E1,6.180338E0,4.322578E1,6.505856E0,3.953839E1,0E0,0E0,0E0,0E0,0E0,0E0,0E0,0E0,0E0,0E0,0E0,0E0,0E0,0E0,0E0,0E0,0E0,0E0,0E0,0E0,0E0,0E0],"parents":[2147483647,0,0,1,1,2,2,3,3,4,4,5,5,6,6,7,7,8,8,9,9,10,10,12,12,13,13,15,15,16,16,17,17,18,18,19,19,20,20,21,21,22,22,23,23,24,24],"right_children":[2,4,6,8,10,12,14,16,18,20,22,-1,24,26,-1,28,30,32,34,36,38,40,42,44,46,-1,-1,-1,-1,-1,-1,-1,-1,-1,-1,-1,-1,-1,-1,-1,-1,-1,-1,-1,-1,-1,-1],"split_conditions":[1E0,3E0,8.01381E-1,7.977355E-1,7.977355E-1,3E0,1.8137637E0,7E0,8.01381E-1,1E0,7E0,-1.1058996E-1,7E0,1.5E1,-1.0438018E-1,4E0,1.1E1,8E0,2.1107298E1,2.5067238E1,6E1,8.2878196E-1,1.1E1,2.1467018E1,1.1E1,-8.494604E-2,1.66781E-4,4.944449E-3,-1.9960832E-2,-6.896112E-2,-1.961214E-2,-9.218237E-2,1.6528964E-2,-1.0403313E-1,-5.283335E-2,9.049371E-2,1.4306095E-2,-1.0179081E-3,9.851768E-2,6.732886E-2,2.2704033E-2,-4.5373403E-2,4.5950636E-3,1.4290899E-3,-6.307387E-2,-6.991178E-2,-1.9985016E-2],"split_indices":[5,3,4,4,4,3,7,0,4,8,0,0,0,0,0,1,0,2,7,7,6,4,0,7,0,0,0,0,0,0,0,0,0,0,0,0,0,0,0,0,0,0,0,0,0,0,0],"split_type":[0,0,0,0,0,0,0,0,0,0,0,0,0,0,0,0,0,0,0,0,0,0,0,0,0,0,0,0,0,0,0,0,0,0,0,0,0,0,0,0,0,0,0,0,0,0,0],"sum_hessian":[4.7866924E3,3.2349202E3,1.5517722E3,9.582794E2,2.2766409E3,1.3766183E3,1.7515395E2,8.592194E2,9.905996E1,1.1616367E3,1.1150042E3,9.0735E1,1.2858833E3,4.647807E0,1.7050615E2,2.634832E2,5.9573627E2,3.814013E0,9.524595E1,1.0437042E3,1.17932495E2,2.615091E2,8.5349506E2,3.7384198E2,9.1204126E2,2.9178143E0,1.7299929E0,1.503894E2,1.1309378E2,1.2997643E2,4.6575983E2,2.0901809E0,1.723832E0,9.133408E1,3.9118643E0,1.00491064E3,3.879353E1,1.0284185E2,1.5090644E1,3.5516598E1,2.2599251E2,2.4011278E2,6.1338226E2,3.584937E2,1.534827E1,2.0397379E2,7.080675E2],"tree_param":{"num_deleted":"0","num_feature":"9","num_nodes":"47","size_leaf_vector":"1"}},{"base_weights":[1.0637747E-2,1.8089753E-1,-3.4015152E-1,-2.843885E-1,3.815886E-1,-2.594314E-1,-1.0133137E0,-2.0954809E-1,-1.0023832E0,7.7758664E-1,-3.915996E-3,-1.0904711E-1,-2.0450433E-1,-5.642667E-1,-1.0224112E-1,-1.3791965E-1,-3.9669213E-1,-1.0186099E0,-5.017316E-1,8.5759366E-1,1.1452328E-1,9.8233156E-2,-2.3089649E-1,-1.21182755E-1,-4.096849E-1,2.1443113E-3,-8.355574E-2,-2.4520667E-2,4.4282437E-3,-7.296906E-2,-3.1076395E-3,-1.0461082E-1,-6.783541E-2,-8.5319495E-3,-7.5049035E-2,8.875926E-2,1.3038187E-2,-9.166713E-4,9.750643E-2,-5.948422E-3,3.9179783E-2,-6.35593E-2,3.819353E-2,-2.3383973E-2,6.95143E-3,-7.6150484E-2,3.5997093E-4],"categories":[],"categories_nodes":[],"categories_segments":[],"categories_sizes":[],"default_left":[0,0,0,0,0,0,0,0,0,0,0,0,0,0,0,0,0,0,0,0,0,0,0,0,0,0,0,0,0,0,0,0,0,0,0,0,0,0,0,0,0,0,0,0,0,0,0],"id":19,"left_children":[1,3,5,7,9,11,13,15,17,19,21,-1,23,25,-1,27,29,31,33,35,37,39,41,43,45,-1,-1,-1,-1,-1,-1,-1,-1,-1,-1,-1,-1,-1,-1,-1,-1,-1,-1,-1,-1,-1,-1],"loss_changes":[2.7854257E2,2.932945E2,8.254486E1,5.0662613E1,3.3494E2,6.1952988E1,8.830261E-2,1.1455055E1,2.128067E-1,5.7316772E1,2.5822395E1,0E0,2.1814411E1,8.8629687E-1,0E0,1.2179286E1,2.8848515E1,8.880615E-2,4.2986393E-1,2.094934E1,1.2535329E1,3.558589E1,8.59673E1,1.9586842E1,5.364672E1,0E0,0E0,0E0,0E0,0E0,0E0,0E0,0E0,0E0,0E0,0E0,0E0,0E0,0E0,0E0,0E0,0E0,0E0,0E0,0E0,0E0,0E0],"parents":[2147483647,0,0,1,1,2,2,3,3,4,4,5,5,6,6,7,7,8,8,9,9,10,10,12,12,13,13,15,15,16,16,17,17,18,18,19,19,20,20,21,21,22,22,23,23,24,24],"right_children":[2,4,6,8,10,12,14,16,18,20,22,-1,24,26,-1,28,30,32,34,36,38,40,42,44,46,-1,-1,-1,-1,-1,-1,-1,-1,-1,-1,-1,-1,-1,-1,-1,-1,-1,-1,-1,-1,-1,-1],"split_conditions":[1E0,3E0,8.01381E-1,8.01381E-1,7.977355E-1,3E0,1.8137637E0,1.7E1,2.1107298E1,1E0,1.7E1,-1.0904711E-1,1.7E1,9E0,-1.0224112E-1,1.1E1,2.1E1,2.2E1,8.709592E-1,2.5067238E1,6E1,1.1E1,2.1E1,1.1E1,2.1E1,2.1443113E-3,-8.355574E-2,-2.4520667E-2,4.4282437E-3,-7.296906E-2,-3.1076395E-3,-1.0461082E-1,-6.783541E-2,-8.5319495E-3,-7.5049035E-2,8.875926E-2,1.3038187E-2,-9.166713E-4,9.750643E-2,-5.948422E-3,3.9179783E-2,-6.35593E-2,3.819353E-2,-2.3383973E-2,6.95143E-3,-7.6150484E-2,3.5997093E-4],"split_indices":[5,3,4,4,4,3,7,0,7,8,0,0,0,3,0,0,0,0,4,7,6,0,0,0,0,0,0,0,0,0,0,0,0,0,0,0,0,0,0,0,0,0,0,0,0,0,0],"split_type":[0,0,0,0,0,0,0,0,0,0,0,0,0,0,0,0,0,0,0,0,0,0,0,0,0,0,0,0,0,0,0,0,0,0,0,0,0,0,0,0,0,0,0,0,0,0,0],"sum_hessian":[4.6616973E3,3.138751E3,1.5229462E3,9.4573157E2,2.1930195E3,1.3611174E3,1.6182875E2,8.5762823E2,8.810332E1,1.0812849E3,1.1117345E3,8.3216064E1,1.2779014E3,4.465027E0,1.5736372E2,6.2149225E2,2.3613602E2,8.433535E1,3.767966E0,9.646002E2,1.16684654E2,7.670862E2,3.4464835E2,9.099652E2,3.679362E2,1.7049791E0,2.760048E0,3.9094452E2,2.305477E2,1.2305929E2,1.1307672E2,7.6109924E1,8.225422E0,1.9113779E0,1.8565881E0,9.261733E2,3.8426968E1,1.0288571E2,1.3798945E1,4.9951797E2,2.675682E2,2.075507E2,1.3709766E2,5.7188806E2,3.3807712E2,1.9829204E2,1.6964415E2],"tree_param":{"num_deleted":"0","num_feature":"9","num_nodes":"47","size_leaf_vector":"1"}},{"base_weights":[1.0092903E-2,1.6845472E-1,-3.1290442E-1,-2.6006135E-1,3.575595E-1,-2.348149E-1,-9.754499E-1,-1.8830736E-1,-9.640283E-1,7.541345E-1,-3.285953E-3,-1.0762807E-1,-1.8338624E-1,-5.345204E-1,-9.9235064E-1,-1.7369755E-1,-1.1013253E0,-4.6143636E-1,-9.809255E-1,8.379147E-1,1.0540798E-1,2.7103835E-1,-8.6711384E-2,1.8753117E-2,-2.67623E-1,-1.0745897E-1,2.0238791E-1,-5.4070944E-1,-1.0019275E-1,-1.4947738E-2,-6.9729134E-2,-7.519024E-2,-1.338491E-1,1.7807772E-2,-8.894027E-2,-9.979865E-2,-4.811726E-2,8.6980626E-2,1.1873151E-2,2.4846349E-2,-6.349682E-2,1.5798213E-3,3.6423992E-2,-3.9821018E-2,3.8003416E-3,3.2388754E-3,-1.1502852E-1,-6.2979326E-2,-1.6491426E-2,6.262847E-2,-2.6378563E-2,5.332208E-3,-8.219617E-2],"categories":[],"categories_nodes":[],"categories_segments":[],"categories_sizes":[],"default_left":[0,0,0,0,0,0,0,0,0,0,0,0,0,0,0,0,0,0,0,0,0,0,0,0,0,0,0,0,0,0,0,0,0,0,0,0,0,0,0,0,0,0,0,0,0,0,0,0,0,0,0,0,0],"id":20,"left_children":[1,3,5,7,9,11,13,15,17,19,21,-1,23,25,27,29,31,33,35,37,39,41,43,45,47,-1,49,51,-1,-1,-1,-1,-1,-1,-1,-1,-1,-1,-1,-1,-1,-1,-1,-1,-1,-1,-1,-1,-1,-1,-1,-1,-1],"loss_changes":[2.3264091E2,2.4739644E2,7.718675E1,4.7047424E1,3.030694E2,5.778572E1,6.428528E-1,1.11435795E1,2.797928E-1,5.4749634E1,2.5423449E1,0E0,2.152605E1,3.3932407E0,1.0908508E-1,1.05172615E1,8.71582E-2,1.4429448E0,2.2364044E-1,2.0388184E1,1.2501556E1,6.156904E0,3.3106586E1,5.978397E0,3.3083786E1,0E0,9.9839157E-1,9.2876136E-1,0E0,0E0,0E0,0E0,0E0,0E0,0E0,0E0,0E0,0E0,0E0,0E0,0E0,0E0,0E0,0E0,0E0,0E0,0E0,0E0,0E0,0E0,0E0,0E0,0E0],"parents":[2147483647,0,0,1,1,2,2,3,3,4,4,5,5,6,6,7,7,8,8,9,9,10,10,12,12,13,13,14,14,15,15,16,16,17,17,18,18,19,19,20,20,21,21,22,22,23,23,24,24,26,26,27,27],"right_children":[2,4,6,8,10,12,14,16,18,20,22,-1,24,26,28,30,32,34,36,38,40,42,44,46,48,-1,50,52,-1,-1,-1,-1,-1,-1,-1,-1,-1,-1,-1,-1,-1,-1,-1,-1,-1,-1,-1,-1,-1,-1,-1,-1,-1],"split_conditions":[1E0,3E0,7.977355E-1,7.977355E-1,7.977355E-1,3E0,8.01381E-1,2.5067238E1,8.01381E-1,1E0,7E0,-1.0762807E-1,7E0,1.4E1,1.8137637E0,1E0,7E0,8.775936E0,2.1107298E1,2.5067238E1,6.6341376E-1,8E0,1.1E1,2.5067238E1,1.1E1,-1.0745897E-1,7E0,9.0774184E-1,-1.0019275E-1,-1.4947738E-2,-6.9729134E-2,-7.519024E-2,-1.338491E-1,1.7807772E-2,-8.894027E-2,-9.979865E-2,-4.811726E-2,8.6980626E-2,1.1873151E-2,2.4846349E-2,-6.349682E-2,1.5798213E-3,3.6423992E-2,-3.9821018E-2,3.8003416E-3,3.2388754E-3,-1.1502852E-1,-6.2979326E-2,-1.6491426E-2,6.262847E-2,-2.6378563E-2,5.332208E-3,-8.219617E-2],"split_indices":[5,3,4,4,4,3,4,7,4,8,0,0,0,0,7,8,2,7,7,7,4,3,0,7,0,0,2,4,0,0,0,0,0,0,0,0,0,0,0,0,0,0,0,0,0,0,0,0,0,0,0,0,0],"split_type":[0,0,0,0,0,0,0,0,0,0,0,0,0,0,0,0,0,0,0,0,0,0,0,0,0,0,0,0,0,0,0,0,0,0,0,0,0,0,0,0,0,0,0,0,0,0,0,0,0,0,0,0,0],"sum_hessian":[4.5461396E3,3.0508313E3,1.4953086E3,9.3399677E2,2.1168345E3,1.338861E3,1.5644757E2,8.4875256E2,8.5244194E1,1.00796967E3,1.1088649E3,7.596752E1,1.2628934E3,6.979657E0,1.4946791E2,8.3655646E2,1.2196069E1,3.6934824E0,8.155071E1,8.9242523E2,1.1554444E2,2.5805725E2,8.508076E2,3.7170538E2,8.9118805E2,3.7633278E0,3.216329E0,4.2966924E0,1.4517122E2,8.00799E2,3.57575E1,6.617173E0,5.5788956E0,1.7148556E0,1.9786268E0,7.789452E1,3.6561913E0,8.5433124E2,3.8093994E1,9.739096E1,1.8153475E1,6.933825E1,1.88719E2,2.4262152E2,6.081861E2,3.683809E2,3.324492E0,1.9576216E2,6.954259E2,1.5046635E0,1.7116656E0,1.64105E0,2.6556425E0],"tree_param":{"num_deleted":"0","num_feature":"9","num_nodes":"53","size_leaf_vector":"1"}},{"base_weights":[9.4171185E-3,1.5637879E-1,-2.87584E-1,-2.3736817E-1,3.3425298E-1,-2.1598478E-1,-9.720003E-1,-1.7217326E-1,-9.597094E-1,7.296919E-1,-2.864936E-3,-1.0635611E-1,-1.6830084E-1,-5.178232E-1,-9.820983E-2,-1.0557499E-2,-2.4491699E-1,-9.778232E-1,-4.5642063E-1,8.1767994E-1,9.5300704E-2,2.5558803E-2,-7.9691714E-1,-1.4263088E-1,-8.42323E-1,-8.0038644E-2,6.208797E-3,9.062948E-3,-1.4448347E-2,-6.1164238E-2,-1.4522359E-2,-1.00942634E-1,-6.0552586E-2,-5.0154305E-3,-7.1476154E-2,8.514974E-2,1.08043505E-2,-1.9038981E-3,9.6402E-2,5.905969E-3,-7.0309184E-2,-1.0389244E-1,-3.9008368E-2,-1.2905066E-2,-1.356242E-1,-1.3167568E-1,-4.855997E-3],"categories":[],"categories_nodes":[],"categories_segments":[],"categories_sizes":[],"default_left":[0,0,0,0,0,0,0,0,0,0,0,0,0,0,0,0,0,0,0,0,0,0,0,0,0,0,0,0,0,0,0,0,0,0,0,0,0,0,0,0,0,0,0,0,0,0,0],"id":21,"left_children":[1,3,5,7,9,11,13,15,17,19,21,-1,23,25,-1,27,29,31,33,35,37,39,41,43,45,-1,-1,-1,-1,-1,-1,-1,-1,-1,-1,-1,-1,-1,-1,-1,-1,-1,-1,-1,-1,-1,-1],"loss_changes":[1.9396866E2,2.08291E2,7.18774E1,4.3427097E1,2.7304645E2,5.3696323E1,1.290741E-1,9.993458E0,2.5030518E-1,5.253531E1,2.4996853E1,0E0,2.1736156E1,8.9182794E-1,0E0,3.603699E0,2.1346203E1,2.462616E-1,4.3959123E-1,1.9769592E1,1.1534573E1,2.6144876E1,3.3631306E0,1.9900185E1,1.7311954E1,0E0,0E0,0E0,0E0,0E0,0E0,0E0,0E0,0E0,0E0,0E0,0E0,0E0,0E0,0E0,0E0,0E0,0E0,0E0,0E0,0E0,0E0],"parents":[2147483647,0,0,1,1,2,2,3,3,4,4,5,5,6,6,7,7,8,8,9,9,10,10,12,12,13,13,15,15,16,16,17,17,18,18,19,19,20,20,21,21,22,22,23,23,24,24],"right_children":[2,4,6,8,10,12,14,16,18,20,22,-1,24,26,-1,28,30,32,34,36,38,40,42,44,46,-1,-1,-1,-1,-1,-1,-1,-1,-1,-1,-1,-1,-1,-1,-1,-1,-1,-1,-1,-1,-1,-1],"split_conditions":[1E0,3E0,8.01381E-1,8.01381E-1,7.977355E-1,3E0,1.8137637E0,7E0,2.1107298E1,1E0,2.3109257E1,-1.0635611E-1,1E0,1.5E1,-9.820983E-2,4E0,1.1E1,2.2E1,8.709592E-1,2.5067238E1,6E1,1E0,9.1592455E-1,2.5067238E1,6E1,-8.0038644E-2,6.208797E-3,9.062948E-3,-1.4448347E-2,-6.1164238E-2,-1.4522359E-2,-1.00942634E-1,-6.0552586E-2,-5.0154305E-3,-7.1476154E-2,8.514974E-2,1.08043505E-2,-1.9038981E-3,9.6402E-2,5.905969E-3,-7.0309184E-2,-1.0389244E-1,-3.9008368E-2,-1.2905066E-2,-1.356242E-1,-1.3167568E-1,-4.855997E-3],"split_indices":[5,3,4,4,4,3,7,0,7,8,7,0,8,0,0,1,0,0,4,7,6,8,4,7,6,0,0,0,0,0,0,0,0,0,0,0,0,0,0,0,0,0,0,0,0,0,0],"split_type":[0,0,0,0,0,0,0,0,0,0,0,0,0,0,0,0,0,0,0,0,0,0,0,0,0,0,0,0,0,0,0,0,0,0,0,0,0,0,0,0,0,0,0,0,0,0,0],"sum_hessian":[4.4419224E3,2.971863E3,1.4700596E3,9.2466534E2,2.0471976E3,1.332027E3,1.3803252E2,8.492543E2,7.541109E1,9.415712E2,1.1056265E3,6.981258E1,1.2622145E3,4.1392994E0,1.3389322E2,2.639587E2,5.852956E2,7.188116E1,3.5299296E0,8.266312E2,1.1494003E2,1.0683517E3,3.72747E1,1.2170741E3,4.5140347E1,2.527554E0,1.611745E0,1.5054135E2,1.1341734E2,1.2400479E2,4.6129077E2,6.467939E1,7.201763E0,1.8363031E0,1.6936266E0,7.888394E2,3.779176E1,1.0243567E2,1.2504363E1,1.02227014E3,4.608157E1,2.2397646E1,1.4877054E1,1.2047E3,1.2374168E1,2.7840906E1,1.729944E1],"tree_param":{"num_deleted":"0","num_feature":"9","num_nodes":"47","size_leaf_vector":"1"}},{"base_weights":[8.74476E-3,1.449578E-1,-2.6367477E-1,-2.1683826E-1,3.116671E-1,-1.9659619E-1,-9.520709E-1,-1.543931E-1,-9.204502E-1,7.052895E-1,-2.7366427E-3,-1.051599E-1,-1.523768E-1,-8.5814196E-1,-1.04141854E-1,-8.739688E-2,-3.3242774E-1,-9.5526576E-1,-5.5947876E-1,7.968373E-1,8.778068E-2,9.257876E-2,-2.1216533E-1,-7.481246E-2,-3.4635723E-1,-8.958828E-1,-4.7479048E-1,-1.840941E-2,7.462228E-3,-6.5281495E-2,5.9157814E-4,-9.768178E-2,-4.115204E-2,-7.178864E-2,1.6514193E-2,8.3259694E-2,9.825046E-3,-1.7139114E-3,9.539364E-2,-4.7384403E-3,3.5796016E-2,-5.6909442E-2,3.4821857E-2,-1.7771415E-2,9.666189E-3,-6.8713196E-2,3.7066068E-3,-9.390385E-2,-5.7639755E-2,3.946662E-2,-6.60766E-2],"categories":[],"categories_nodes":[],"categories_segments":[],"categories_sizes":[],"default_left":[0,0,0,0,0,0,0,0,0,0,0,0,0,0,0,0,0,0,0,0,0,0,0,0,0,0,0,0,0,0,0,0,0,0,0,0,0,0,0,0,0,0,0,0,0,0,0,0,0,0,0],"id":22,"left_children":[1,3,5,7,9,11,13,15,17,19,21,-1,23,25,-1,27,29,31,33,35,37,39,41,43,45,47,49,-1,-1,-1,-1,-1,-1,-1,-1,-1,-1,-1,-1,-1,-1,-1,-1,-1,-1,-1,-1,-1,-1,-1,-1],"loss_changes":[1.614031E2,1.7496274E2,6.676524E1,4.00718E1,2.457136E2,4.9838257E1,1.8455505E-1,1.0012287E1,4.0063858E-1,4.9771362E1,2.2073252E1,0E0,1.891064E1,5.6303024E-1,0E0,9.617979E0,2.4916855E1,3.7670517E-1,1.1468849E0,1.9096252E1,1.04632015E1,2.824389E1,6.937451E1,1.5903917E1,4.696239E1,3.0068207E-1,1.5948467E0,0E0,0E0,0E0,0E0,0E0,0E0,0E0,0E0,0E0,0E0,0E0,0E0,0E0,0E0,0E0,0E0,0E0,0E0,0E0,0E0,0E0,0E0,0E0,0E0],"parents":[2147483647,0,0,1,1,2,2,3,3,4,4,5,5,6,6,7,7,8,8,9,9,10,10,12,12,13,13,15,15,16,16,17,17,18,18,19,19,20,20,21,21,22,22,23,23,24,24,25,25,26,26],"right_children":[2,4,6,8,10,12,14,16,18,20,22,-1,24,26,-1,28,30,32,34,36,38,40,42,44,46,48,50,-1,-1,-1,-1,-1,-1,-1,-1,-1,-1,-1,-1,-1,-1,-1,-1,-1,-1,-1,-1,-1,-1,-1,-1],"split_conditions":[1E0,3E0,8.01381E-1,7.977355E-1,7.977355E-1,3E0,1.0615723E1,1.7E1,2.2E1,1E0,1.7E1,-1.051599E-1,1.7E1,9.628556E0,-1.04141854E-1,1.1E1,2.1E1,2.1107298E1,6E0,2.5067238E1,6E1,1.1E1,2.1E1,1.1E1,2.1E1,6E0,8.3288616E-1,-1.840941E-2,7.462228E-3,-6.5281495E-2,5.9157814E-4,-9.768178E-2,-4.115204E-2,-7.178864E-2,1.6514193E-2,8.3259694E-2,9.825046E-3,-1.7139114E-3,9.539364E-2,-4.7384403E-3,3.5796016E-2,-5.6909442E-2,3.4821857E-2,-1.7771415E-2,9.666189E-3,-6.8713196E-2,3.7066068E-3,-9.390385E-2,-5.7639755E-2,3.946662E-2,-6.60766E-2],"split_indices":[5,3,4,4,4,3,7,0,0,8,0,0,0,7,0,0,0,7,1,7,6,0,0,0,0,1,4,0,0,0,0,0,0,0,0,0,0,0,0,0,0,0,0,0,0,0,0,0,0,0,0],"split_type":[0,0,0,0,0,0,0,0,0,0,0,0,0,0,0,0,0,0,0,0,0,0,0,0,0,0,0,0,0,0,0,0,0,0,0,0,0,0,0,0,0,0,0,0,0,0,0,0,0,0,0],"sum_hessian":[4.347627E3,2.8987065E3,1.4489203E3,9.1425995E2,1.9844467E3,1.3214421E3,1.2747812E2,8.4085406E2,7.3405876E1,8.806548E2,1.1037919E3,6.3861835E1,1.2575803E3,6.7315506E1,6.0162613E1,6.120314E2,2.2882268E2,6.544715E1,7.9587264E0,7.666987E2,1.139561E2,7.589402E2,3.448517E2,8.993536E2,3.5822678E2,6.006514E1,7.250366E0,3.8319467E2,2.2883672E2,1.170527E2,1.1176999E2,6.218587E1,3.2612796E0,6.538626E0,1.4201002E0,7.2918115E2,3.7517555E1,1.0251803E2,1.1438073E1,4.974203E2,2.615199E2,2.1065942E2,1.3419228E2,5.620382E2,3.3731537E2,1.8924214E2,1.6898463E2,5.1208714E1,8.856428E0,1.0798417E0,6.1705246E0],"tree_param":{"num_deleted":"0","num_feature":"9","num_nodes":"51","size_leaf_vector":"1"}},{"base_weights":[8.191817E-3,1.3435347E-1,-2.420731E-1,-1.9797772E-1,2.9045397E-1,-1.792153E-1,-9.324906E-1,-1.413636E-1,-9.192358E-1,6.804147E-1,-2.2699547E-3,-1.0404196E-1,-1.3819398E-1,-8.33805E-1,-1.0279488E-1,-1.2774691E-1,-1.0206245E0,-9.394485E-1,-4.147518E-1,7.7535135E-1,8.085896E-2,3.5392612E-1,-5.8107372E-2,-1.1444688E-1,-7.827988E-1,-8.7315977E-1,-4.4803149E-1,-1.0546376E-2,-6.2215872E-2,-6.8133764E-2,-1.2589273E-1,-9.749634E-2,-5.5231035E-2,-2.120306E-3,-6.810063E-2,8.130498E-2,8.928884E-3,2.1464007E-2,-5.8440484E-2,4.5442987E-2,-4.7948933E-3,-1.1911662E-2,3.193704E-2,-1.0188517E-2,-1.2853837E-1,-1.2587322E-1,-3.107716E-3,-9.184029E-2,-5.489835E-2,3.674946E-2,-6.348221E-2],"categories":[],"categories_nodes":[],"categories_segments":[],"categories_sizes":[],"default_left":[0,0,0,0,0,0,0,0,0,0,0,0,0,0,0,0,0,0,0,0,0,0,0,0,0,0,0,0,0,0,0,0,0,0,0,0,0,0,0,0,0,0,0,0,0,0,0,0,0,0,0],"id":23,"left_children":[1,3,5,7,9,11,13,15,17,19,21,-1,23,25,-1,27,29,31,33,35,37,39,41,43,45,47,49,-1,-1,-1,-1,-1,-1,-1,-1,-1,-1,-1,-1,-1,-1,-1,-1,-1,-1,-1,-1,-1,-1,-1,-1],"loss_changes":[1.3446297E2,1.4693796E2,6.1776566E1,3.684349E1,2.1995277E2,4.611676E1,2.626648E-1,9.935625E0,2.804985E-1,4.696469E1,2.1931234E1,0E0,1.9061363E1,5.7650375E-1,0E0,9.068322E0,1.6735458E-1,3.1942368E-1,4.38451E-1,1.8371796E1,1.0276561E1,6.0573425E0,2.1990154E1,1.763457E1,1.58032E1,3.2868195E-1,1.4450121E0,0E0,0E0,0E0,0E0,0E0,0E0,0E0,0E0,0E0,0E0,0E0,0E0,0E0,0E0,0E0,0E0,0E0,0E0,0E0,0E0,0E0,0E0,0E0,0E0],"parents":[2147483647,0,0,1,1,2,2,3,3,4,4,5,5,6,6,7,7,8,8,9,9,10,10,12,12,13,13,15,15,16,16,17,17,18,18,19,19,20,20,21,21,22,22,23,23,24,24,25,25,26,26],"right_children":[2,4,6,8,10,12,14,16,18,20,22,-1,24,26,-1,28,30,32,34,36,38,40,42,44,46,48,50,-1,-1,-1,-1,-1,-1,-1,-1,-1,-1,-1,-1,-1,-1,-1,-1,-1,-1,-1,-1,-1,-1,-1,-1],"split_conditions":[1E0,3E0,8.01381E-1,8.01381E-1,7.977355E-1,3E0,1.0615723E1,2.5067238E1,2.1107298E1,1E0,4E0,-1.0404196E-1,1E0,9.628556E0,-1.0279488E-1,1E0,7E0,2.2E1,8.709592E-1,2.5067238E1,6.6341376E-1,9.6225435E-1,2.1E1,2.5067238E1,6E1,6E0,8.3288616E-1,-1.0546376E-2,-6.2215872E-2,-6.8133764E-2,-1.2589273E-1,-9.749634E-2,-5.5231035E-2,-2.120306E-3,-6.810063E-2,8.130498E-2,8.928884E-3,2.1464007E-2,-5.8440484E-2,4.5442987E-2,-4.7948933E-3,-1.1911662E-2,3.193704E-2,-1.0188517E-2,-1.2853837E-1,-1.2587322E-1,-3.107716E-3,-9.184029E-2,-5.489835E-2,3.674946E-2,-6.348221E-2],"split_indices":[5,3,4,4,4,3,7,7,7,8,0,0,8,7,0,8,2,0,4,7,4,4,0,7,6,1,4,0,0,0,0,0,0,0,0,0,0,0,0,0,0,0,0,0,0,0,0,0,0,0,0],"split_type":[0,0,0,0,0,0,0,0,0,0,0,0,0,0,0,0,0,0,0,0,0,0,0,0,0,0,0,0,0,0,0,0,0,0,0,0,0,0,0,0,0,0,0,0,0,0,0,0,0,0,0],"sum_hessian":[4.2566533E3,2.8303179E3,1.4263353E3,9.0447064E2,1.9258473E3,1.3084678E3,1.178675E2,8.397516E2,6.471909E1,8.252036E2,1.1006437E3,5.8384167E1,1.2500836E3,6.2740524E1,5.5126972E1,8.280729E2,1.1678681E1,6.1396965E1,3.322127E0,7.121457E2,1.13057915E2,1.4843213E2,9.522115E2,1.2068029E3,4.328079E1,5.57861E1,6.9544272E0,7.9352216E2,3.4550747E1,6.4106092E0,5.268072E0,5.484707E1,6.5498967E0,1.7762704E0,1.5458567E0,6.7487683E2,3.726891E1,9.469301E1,1.8364912E1,1.1863283E2,2.9799307E1,8.20314E2,1.318975E2,1.1950692E3,1.1733588E1,2.6088837E1,1.719195E1,4.734539E1,8.440709E0,1.1157328E0,5.8386946E0],"tree_param":{"num_deleted":"0","num_feature":"9","num_nodes":"51","size_leaf_vector":"1"}},{"base_weights":[7.5203483E-3,1.2405706E-1,-2.2171353E-1,-1.8049993E-1,2.698705E-1,-1.6110927E-1,-8.9113307E-1,-1.280064E-1,-8.991275E-1,6.5016854E-1,-5.2687293E-3,-1.02966845E-1,-1.2306546E-1,-6.4150107E-1,-9.474889E-1,2.349888E-2,-1.9742662E-1,-9.2035407E-1,-3.978682E-1,7.4638474E-1,7.297638E-2,1.3083639E-2,-1.0486286E0,6.3115075E-2,-2.0230895E-1,-7.3250765E-1,5.9247103E-2,-8.2317895E-1,-1.0523629E-1,-3.2177677E-3,2.7196476E-2,-5.448527E-2,-1.0590242E-2,-9.580689E-2,-5.2595437E-2,-1.986707E-3,-6.61785E-2,7.9047374E-2,1.5138884E-2,-2.3846533E-3,9.430908E-2,4.3770424E-3,-6.3496195E-2,-1.2461602E-2,-1.1606868E-1,3.6338963E-2,1.131015E-3,-5.5015713E-2,-1.0691387E-2,2.3358075E-2,-8.293267E-2,-8.5700735E-2,2.0136945E-3],"categories":[],"categories_nodes":[],"categories_segments":[],"categories_sizes":[],"default_left":[0,0,0,0,0,0,0,0,0,0,0,0,0,0,0,0,0,0,0,0,0,0,0,0,0,0,0,0,0,0,0,0,0,0,0,0,0,0,0,0,0,0,0,0,0,0,0,0,0,0,0,0,0],"id":24,"left_children":[1,3,5,7,9,11,13,15,17,19,21,-1,23,25,27,29,31,33,35,37,39,41,43,45,47,49,-1,51,-1,-1,-1,-1,-1,-1,-1,-1,-1,-1,-1,-1,-1,-1,-1,-1,-1,-1,-1,-1,-1,-1,-1,-1,-1],"loss_changes":[1.1169972E2,1.23149506E2,5.7029358E1,3.376323E1,1.9618712E2,4.2614197E1,1.034935E0,8.81943E0,2.8253937E-1,4.365555E1,2.0863497E1,0E0,1.8312227E1,3.1968946E0,3.483429E-1,3.664267E0,1.8221573E1,3.5483932E-1,4.09684E-1,1.7574432E1,9.589932E0,2.1326832E1,1.8054981E0,5.7681565E0,2.8819302E1,2.3787355E0,0E0,1.3644943E0,0E0,0E0,0E0,0E0,0E0,0E0,0E0,0E0,0E0,0E0,0E0,0E0,0E0,0E0,0E0,0E0,0E0,0E0,0E0,0E0,0E0,0E0,0E0,0E0,0E0],"parents":[2147483647,0,0,1,1,2,2,3,3,4,4,5,5,6,6,7,7,8,8,9,9,10,10,12,12,13,13,14,14,15,15,16,16,17,17,18,18,19,19,20,20,21,21,22,22,23,23,24,24,25,25,27,27],"right_children":[2,4,6,8,10,12,14,16,18,20,22,-1,24,26,28,30,32,34,36,38,40,42,44,46,48,50,-1,52,-1,-1,-1,-1,-1,-1,-1,-1,-1,-1,-1,-1,-1,-1,-1,-1,-1,-1,-1,-1,-1,-1,-1,-1,-1],"split_conditions":[1E0,3E0,7.977355E-1,8.01381E-1,8.01381E-1,3E0,8.3288616E-1,7E0,2.1107298E1,1E0,2.5067238E1,-1.02966845E-1,7E0,2.3E1,9.953612E0,6.6341376E-1,1.1E1,2.2E1,8.709592E-1,2.3109257E1,6E1,1E0,3E0,1E0,1.1E1,3.2188847E0,5.9247103E-2,9.628556E0,-1.0523629E-1,-3.2177677E-3,2.7196476E-2,-5.448527E-2,-1.0590242E-2,-9.580689E-2,-5.2595437E-2,-1.986707E-3,-6.61785E-2,7.9047374E-2,1.5138884E-2,-2.3846533E-3,9.430908E-2,4.3770424E-3,-6.3496195E-2,-1.2461602E-2,-1.1606868E-1,3.6338963E-2,1.131015E-3,-5.5015713E-2,-1.0691387E-2,2.3358075E-2,-8.293267E-2,-8.5700735E-2,2.0136945E-3],"split_indices":[5,3,4,4,4,3,4,0,7,8,7,0,0,0,7,4,0,0,4,7,6,8,0,0,0,7,0,7,0,0,0,0,0,0,0,0,0,0,0,0,0,0,0,0,0,0,0,0,0,0,0,0,0],"split_type":[0,0,0,0,0,0,0,0,0,0,0,0,0,0,0,0,0,0,0,0,0,0,0,0,0,0,0,0,0,0,0,0,0,0,0,0,0,0,0,0,0,0,0,0,0,0,0,0,0,0,0,0,0],"sum_hessian":[4.1792627E3,2.77101E3,1.4082527E3,8.9707446E2,1.8739355E3,1.2924817E3,1.1577098E2,8.371047E2,5.9969784E1,7.860678E2,1.0878677E3,5.3142685E1,1.239339E3,2.3602987E1,9.2168E1,2.6324667E2,5.73858E2,5.6731327E1,3.2384543E0,6.7350366E2,1.12564186E2,1.0700336E3,1.783409E1,3.7007083E2,8.692682E2,2.236028E1,1.2427086E0,4.622522E1,4.5942776E1,2.1576768E2,4.7479008E1,1.1862065E2,4.5523734E2,5.0475388E1,6.255943E0,1.7735391E0,1.4649153E0,6.267343E2,4.6769352E1,1.0216793E2,1.0396253E1,1.02254565E3,4.748796E1,2.1573138E0,1.5676776E1,5.3567184E1,3.1650363E2,1.8605844E2,6.832097E2,1.9081045E0,2.0452173E1,4.442687E1,1.7983506E0],"tree_param":{"num_deleted":"0","num_feature":"9","num_nodes":"53","size_leaf_vector":"1"}},{"base_weights":[6.9352817E-3,1.1444711E-1,-2.030554E-1,-1.6464442E-1,2.5026086E-1,-1.4831252E-1,-8.935359E-1,-1.15951926E-1,-8.789932E-1,6.2916154E-1,-2.2754364E-3,-1.0198406E-1,-1.1325158E-1,-7.847545E-1,-1.00272834E-1,-1.0324603E-1,-9.594204E-1,-9.0124595E-1,-3.818114E-1,7.3053515E-1,6.731987E-2,2.4223647E-1,-7.509673E-2,-9.139959E-2,-7.276163E-1,-8.2823956E-1,-3.8364097E-1,-4.0529515E-3,-2.7198507E-2,-4.778854E-2,-1.0867411E-1,-9.4128184E-2,-5.0022125E-2,-1.861479E-3,-6.43239E-2,7.721957E-2,6.7103663E-3,-2.1462438E-3,9.327501E-2,6.139944E-2,1.8351136E-2,-3.4045555E-2,3.302458E-3,-7.978759E-3,-1.2221841E-1,-1.2053879E-1,-1.9993628E-3,-8.793678E-2,-4.7873806E-2,2.130912E-2,-6.731635E-2],"categories":[],"categories_nodes":[],"categories_segments":[],"categories_sizes":[],"default_left":[0,0,0,0,0,0,0,0,0,0,0,0,0,0,0,0,0,0,0,0,0,0,0,0,0,0,0,0,0,0,0,0,0,0,0,0,0,0,0,0,0,0,0,0,0,0,0,0,0,0,0],"id":25,"left_children":[1,3,5,7,9,11,13,15,17,19,21,-1,23,25,-1,27,29,31,33,35,37,39,41,43,45,47,49,-1,-1,-1,-1,-1,-1,-1,-1,-1,-1,-1,-1,-1,-1,-1,-1,-1,-1,-1,-1,-1,-1,-1,-1],"loss_changes":[9.2693886E1,1.02968735E2,5.2419167E1,3.0836838E1,1.7481787E2,3.9283165E1,4.2383575E-1,8.837439E0,2.8218842E-1,4.1567566E1,1.955625E1,0E0,1.6589046E1,6.5312195E-1,0E0,8.694387E0,2.3195457E-1,3.8728714E-1,3.8303298E-1,1.7053772E1,8.68605E0,5.3898E0,2.4290995E1,1.5648259E1,1.4333538E1,4.6094513E-1,1.4058539E0,0E0,0E0,0E0,0E0,0E0,0E0,0E0,0E0,0E0,0E0,0E0,0E0,0E0,0E0,0E0,0E0,0E0,0E0,0E0,0E0,0E0,0E0,0E0,0E0],"parents":[2147483647,0,0,1,1,2,2,3,3,4,4,5,5,6,6,7,7,8,8,9,9,10,10,12,12,13,13,15,15,16,16,17,17,18,18,19,19,20,20,21,21,22,22,23,23,24,24,25,25,26,26],"right_children":[2,4,6,8,10,12,14,16,18,20,22,-1,24,26,-1,28,30,32,34,36,38,40,42,44,46,48,50,-1,-1,-1,-1,-1,-1,-1,-1,-1,-1,-1,-1,-1,-1,-1,-1,-1,-1,-1,-1,-1,-1,-1,-1],"split_conditions":[1E0,3E0,8.01381E-1,8.01381E-1,7.977355E-1,3E0,1.0615723E1,2.5067238E1,2.1107298E1,1E0,7E0,-1.0198406E-1,1E0,9.628556E0,-1.00272834E-1,1.7E1,4E0,2.2E1,8.709592E-1,2.5067238E1,6E1,8.2878196E-1,1.1E1,2.5067238E1,6E1,6E0,8.5863966E-1,-4.0529515E-3,-2.7198507E-2,-4.778854E-2,-1.0867411E-1,-9.4128184E-2,-5.0022125E-2,-1.861479E-3,-6.43239E-2,7.721957E-2,6.7103663E-3,-2.1462438E-3,9.327501E-2,6.139944E-2,1.8351136E-2,-3.4045555E-2,3.302458E-3,-7.978759E-3,-1.2221841E-1,-1.2053879E-1,-1.9993628E-3,-8.793678E-2,-4.7873806E-2,2.130912E-2,-6.731635E-2],"split_indices":[5,3,4,4,4,3,7,7,7,8,0,0,8,7,0,0,0,0,4,7,6,4,0,7,6,1,4,0,0,0,0,0,0,0,0,0,0,0,0,0,0,0,0,0,0,0,0,0,0,0,0],"split_type":[0,0,0,0,0,0,0,0,0,0,0,0,0,0,0,0,0,0,0,0,0,0,0,0,0,0,0,0,0,0,0,0,0,0,0,0,0,0,0,0,0,0,0,0,0,0,0,0,0,0,0],"sum_hessian":[4.1037427E3,2.7144456E3,1.3892972E3,8.884684E2,1.8259772E3,1.2883673E3,1.0092991E2,8.3286005E2,5.5608326E1,7.2968317E2,1.0962941E3,4.873938E1,1.2396279E3,5.466127E1,4.626864E1,8.216059E2,1.125415E1,5.2448154E1,3.1601715E0,6.1789545E2,1.1178771E2,2.5104254E2,8.452515E2,1.19816E3,4.146792E1,4.8354286E1,6.306983E0,5.99883E2,2.217229E2,3.3474147E0,7.906736E0,4.646243E1,5.985725E0,1.7709821E0,1.3891894E0,5.812327E2,3.666272E1,1.0227117E2,9.5165415E0,3.295655E1,2.18086E2,2.4407555E2,6.0117596E2,1.1870409E3,1.1119135E1,2.4334414E1,1.7133505E1,4.086074E1,7.4935465E0,2.146612E0,4.160371E0],"tree_param":{"num_deleted":"0","num_feature":"9","num_nodes":"51","size_leaf_vector":"1"}},{"base_weights":[6.34042E-3,1.054865E-1,-1.8577279E-1,-1.5000626E-1,2.3198947E-1,-1.3486736E-1,-8.7393636E-1,-1.04969636E-1,-8.5872704E-1,6.031805E-1,-1.9317344E-3,-1.01017915E-1,-1.02550216E-1,-7.601831E-1,-9.905826E-2,-9.3248114E-2,-9.0617E-1,-9.057943E-1,-5.388195E-1,7.070778E-1,6.2122762E-2,8.9318685E-2,-2.0122436E-1,-3.0534543E-2,-2.8556493E-1,-8.0509925E-1,-3.6245802E-1,-7.2663957E-3,-5.597653E-2,-5.6902386E-2,-1.1604885E-1,-6.753611E-2,-9.7044535E-2,4.500128E-2,-7.167835E-2,7.505281E-2,6.085855E-3,1.8657072E-2,-5.362999E-2,-4.053095E-3,3.3714384E-2,-4.988083E-2,2.9053107E-2,-1.2498638E-2,1.2449468E-2,-6.1641682E-2,7.077182E-3,-8.585027E-2,-4.5351934E-2,-6.547322E-2,2.0215675E-2],"categories":[],"categories_nodes":[],"categories_segments":[],"categories_sizes":[],"default_left":[0,0,0,0,0,0,0,0,0,0,0,0,0,0,0,0,0,0,0,0,0,0,0,0,0,0,0,0,0,0,0,0,0,0,0,0,0,0,0,0,0,0,0,0,0,0,0,0,0,0,0],"id":26,"left_children":[1,3,5,7,9,11,13,15,17,19,21,-1,23,25,-1,27,29,31,33,35,37,39,41,43,45,47,49,-1,-1,-1,-1,-1,-1,-1,-1,-1,-1,-1,-1,-1,-1,-1,-1,-1,-1,-1,-1,-1,-1,-1,-1],"loss_changes":[7.692938E1,8.613608E1,4.8045273E1,2.8088E1,1.5474496E2,3.61426E1,5.010834E-1,7.721633E0,3.0408096E-1,3.8684418E1,1.9916893E1,0E0,1.629269E1,6.3981247E-1,0E0,7.83693E0,3.5746193E-1,5.9509277E-3,1.9443147E0,1.617978E1,8.4468775E0,2.4188908E1,5.0480465E1,1.3028566E1,4.120525E1,4.7507286E-1,1.3057826E0,0E0,0E0,0E0,0E0,0E0,0E0,0E0,0E0,0E0,0E0,0E0,0E0,0E0,0E0,0E0,0E0,0E0,0E0,0E0,0E0,0E0,0E0,0E0,0E0],"parents":[2147483647,0,0,1,1,2,2,3,3,4,4,5,5,6,6,7,7,8,8,9,9,10,10,12,12,13,13,15,15,16,16,17,17,18,18,19,19,20,20,21,21,22,22,23,23,24,24,25,25,26,26],"right_children":[2,4,6,8,10,12,14,16,18,20,22,-1,24,26,-1,28,30,32,34,36,38,40,42,44,46,48,50,-1,-1,-1,-1,-1,-1,-1,-1,-1,-1,-1,-1,-1,-1,-1,-1,-1,-1,-1,-1,-1,-1,-1,-1],"split_conditions":[1E0,3E0,8.01381E-1,8.01381E-1,7.977355E-1,3E0,1.0615723E1,2.5067238E1,1.769486E1,1E0,1.7E1,-1.01017915E-1,1.7E1,9.628556E0,-9.905826E-2,1E0,7E0,8.5863966E-1,1.8514637E1,2.5067238E1,6.6341376E-1,1.1E1,2.1E1,1.1E1,2.1E1,6E0,1.4E1,-7.2663957E-3,-5.597653E-2,-5.6902386E-2,-1.1604885E-1,-6.753611E-2,-9.7044535E-2,4.500128E-2,-7.167835E-2,7.505281E-2,6.085855E-3,1.8657072E-2,-5.362999E-2,-4.053095E-3,3.3714384E-2,-4.988083E-2,2.9053107E-2,-1.2498638E-2,1.2449468E-2,-6.1641682E-2,7.077182E-3,-8.585027E-2,-4.5351934E-2,-6.547322E-2,2.0215675E-2],"split_indices":[5,3,4,4,4,3,7,7,7,8,0,0,0,7,0,8,2,4,7,7,4,0,0,0,0,1,3,0,0,0,0,0,0,0,0,0,0,0,0,0,0,0,0,0,0,0,0,0,0,0,0],"split_type":[0,0,0,0,0,0,0,0,0,0,0,0,0,0,0,0,0,0,0,0,0,0,0,0,0,0,0,0,0,0,0,0,0,0,0,0,0,0,0,0,0,0,0,0,0,0,0,0,0,0,0],"sum_hessian":[4.0368374E3,2.6629758E3,1.3738616E3,8.8181836E2,1.7811573E3,1.2803467E3,9.351492E1,8.3020966E2,5.160869E1,6.879404E2,1.0932169E3,4.451079E1,1.2358359E3,5.115025E1,4.2364677E1,8.193392E2,1.087051E1,4.3392952E1,8.215735E0,5.768612E2,1.1107926E2,7.502504E2,3.429665E2,8.8769696E2,3.4813895E2,4.5039547E1,6.1106997E0,7.858221E2,3.3517097E1,6.066151E0,4.804359E0,1.2014909E1,3.1378044E1,1.0199351E0,7.1958003E0,5.403667E2,3.6494473E1,9.2525826E1,1.8553438E1,4.9285315E2,2.5739725E2,2.136579E2,1.293086E2,5.5174133E2,3.3595563E2,1.8014648E2,1.6799246E2,3.7848663E1,7.1908855E0,3.9212477E0,2.189452E0],"tree_param":{"num_deleted":"0","num_feature":"9","num_nodes":"51","size_leaf_vector":"1"}},{"base_weights":[5.7707527E-3,9.702217E-2,-1.7012407E-1,-1.3662705E-1,2.1464936E-1,-1.2278233E-1,-8.540849E-1,-9.355447E-2,-8.1331307E-1,5.7653385E-1,-1.5862917E-3,-1.00079454E-1,-9.2966534E-2,-7.3538345E-1,-9.786164E-2,-3.6890693E-2,-2.4757944E-1,-8.5920805E-1,-4.1550982E-1,6.8299586E-1,5.5970494E-2,2.6052434E-2,-6.227065E-1,7.2707854E-2,-1.6454056E-1,-7.816874E-1,-3.421381E-1,-1.2397005E-2,1.0675399E-2,-5.6226492E-2,6.7599514E-3,-8.8798545E-2,-3.0787423E-2,2.085079E-3,-8.13684E-2,9.56183E-2,5.6601174E-2,-2.5903282E-3,9.217642E-2,5.4725795E-3,-5.840854E-2,-4.3014288E-2,-1.0787032E-1,3.497843E-2,2.5011378E-3,-4.944369E-2,-7.6743998E-3,-8.6795434E-2,-5.0961252E-2,2.2683935E-2,-6.39028E-2],"categories":[],"categories_nodes":[],"categories_segments":[],"categories_sizes":[],"default_left":[0,0,0,0,0,0,0,0,0,0,0,0,0,0,0,0,0,0,0,0,0,0,0,0,0,0,0,0,0,0,0,0,0,0,0,0,0,0,0,0,0,0,0,0,0,0,0,0,0,0,0],"id":27,"left_children":[1,3,5,7,9,11,13,15,17,19,21,-1,23,25,-1,27,29,31,33,35,37,39,41,43,45,47,49,-1,-1,-1,-1,-1,-1,-1,-1,-1,-1,-1,-1,-1,-1,-1,-1,-1,-1,-1,-1,-1,-1,-1,-1],"loss_changes":[6.3800823E1,7.195816E1,4.3859768E1,2.548507E1,1.362522E2,3.3181213E1,5.7715607E-1,7.1967E0,5.987816E-1,3.6054733E1,1.8743992E1,0E0,1.4602073E1,6.236839E-1,0E0,7.577849E0,2.2044106E1,4.564476E-1,1.2942847E0,1.6735413E1,7.9394126E0,1.8320976E1,3.6204967E0,4.905945E0,2.4856903E1,5.670681E-1,1.3162502E0,0E0,0E0,0E0,0E0,0E0,0E0,0E0,0E0,0E0,0E0,0E0,0E0,0E0,0E0,0E0,0E0,0E0,0E0,0E0,0E0,0E0,0E0,0E0,0E0],"parents":[2147483647,0,0,1,1,2,2,3,3,4,4,5,5,6,6,7,7,8,8,9,9,10,10,12,12,13,13,15,15,16,16,17,17,18,18,19,19,20,20,21,21,22,22,23,23,24,24,25,25,26,26],"right_children":[2,4,6,8,10,12,14,16,18,20,22,-1,24,26,-1,28,30,32,34,36,38,40,42,44,46,48,50,-1,-1,-1,-1,-1,-1,-1,-1,-1,-1,-1,-1,-1,-1,-1,-1,-1,-1,-1,-1,-1,-1,-1,-1],"split_conditions":[1E0,3E0,8.01381E-1,7.977355E-1,7.977355E-1,3E0,1.0615723E1,1.7E1,2.2E1,1E0,2.2329525E1,-1.00079454E-1,7E0,9.628556E0,-9.786164E-2,1.1E1,2.1E1,2.1107298E1,6E1,7E0,6E1,1E0,1.7E1,1E0,1.1E1,1E1,8.5863966E-1,-1.2397005E-2,1.0675399E-2,-5.6226492E-2,6.7599514E-3,-8.8798545E-2,-3.0787423E-2,2.085079E-3,-8.13684E-2,9.56183E-2,5.6601174E-2,-2.5903282E-3,9.217642E-2,5.4725795E-3,-5.840854E-2,-4.3014288E-2,-1.0787032E-1,3.497843E-2,2.5011378E-3,-4.944369E-2,-7.6743998E-3,-8.6795434E-2,-5.0961252E-2,2.2683935E-2,-6.39028E-2],"split_indices":[5,3,4,4,4,3,7,0,0,8,7,0,0,7,0,0,0,7,6,0,6,8,0,0,0,2,4,0,0,0,0,0,0,0,0,0,0,0,0,0,0,0,0,0,0,0,0,0,0,0,0],"split_type":[0,0,0,0,0,0,0,0,0,0,0,0,0,0,0,0,0,0,0,0,0,0,0,0,0,0,0,0,0,0,0,0,0,0,0,0,0,0,0,0,0,0,0,0,0,0,0,0,0,0,0],"sum_hessian":[3.97294E3,2.6161643E3,1.3567758E3,8.7598553E2,1.7401787E3,1.2700464E3,8.672931E1,8.24634E2,5.135155E1,6.5025995E2,1.0899187E3,4.064257E1,1.2294038E3,4.793942E1,3.8789894E1,6.037586E2,2.2087538E2,4.4999973E1,6.3515778E0,5.3959393E2,1.1066603E2,1.0444027E3,4.551598E1,3.7088654E2,8.585173E2,4.2005554E1,5.9338636E0,3.7597464E2,2.2778397E2,1.1013193E2,1.10743454E2,4.218735E1,2.8126218E0,3.4826083E0,2.8689694E0,1.5963437E2,3.7995953E2,1.0199131E2,8.6747265E0,9.983937E2,4.600909E1,3.3368176E1,1.2147802E1,5.353862E1,3.1734793E2,1.794817E2,6.790356E2,3.0230291E1,1.1775262E1,2.1155143E0,3.8183494E0],"tree_param":{"num_deleted":"0","num_feature":"9","num_nodes":"51","size_leaf_vector":"1"}},{"base_weights":[5.232512E-3,8.9083925E-2,-1.555567E-1,-1.2452616E-1,1.9798252E-1,-1.1161096E-1,-8.3395135E-1,-8.6018786E-2,-8.1738085E-1,5.497269E-1,-1.592956E-3,-9.9158965E-2,-8.41459E-2,-7.1044415E-1,-9.667185E-1,4.9632058E-2,-1.4934364E-1,-8.7051135E-1,-4.7910753E-1,6.576333E-1,5.176516E-2,2.2635707E-1,-6.887892E-2,-6.386079E-2,-6.752525E-1,-7.7030706E-1,-3.609272E-1,-6.122833E-1,-1.015659E-1,4.335553E-2,1.7679714E-3,-4.8528038E-2,-6.3158968E-3,-6.1599165E-2,-9.446015E-2,-7.4731596E-2,1.777715E-2,9.4551235E-2,5.3871036E-2,5.992486E-2,-7.45641E-3,-9.299E-4,3.144196E-2,-3.0236898E-2,2.7582503E-3,-5.30428E-3,-1.1684183E-1,-1.1594991E-1,-4.7521843E-4,-1.8038796E-2,-8.053292E-2,1.551948E-2,-8.3554864E-2,2.7786989E-2,-8.654815E-2],"categories":[],"categories_nodes":[],"categories_segments":[],"categories_sizes":[],"default_left":[0,0,0,0,0,0,0,0,0,0,0,0,0,0,0,0,0,0,0,0,0,0,0,0,0,0,0,0,0,0,0,0,0,0,0,0,0,0,0,0,0,0,0,0,0,0,0,0,0,0,0,0,0,0,0],"id":28,"left_children":[1,3,5,7,9,11,13,15,17,19,21,-1,23,25,27,29,31,33,35,37,39,41,43,45,47,49,51,53,-1,-1,-1,-1,-1,-1,-1,-1,-1,-1,-1,-1,-1,-1,-1,-1,-1,-1,-1,-1,-1,-1,-1,-1,-1,-1,-1],"loss_changes":[5.2814583E1,5.9914364E1,3.993562E1,2.314004E1,1.1973591E2,3.042099E1,6.501198E-1,7.096505E0,4.040451E-1,3.3142853E1,1.6721586E1,0E0,1.464592E1,6.846657E-1,1.1623383E-2,3.2234652E0,1.6265926E1,1.3963509E-1,1.6173053E0,1.6861176E1,7.725411E0,5.15926E0,1.8966505E1,1.41036625E1,1.3157528E1,6.481056E-1,2.2387352E0,1.8066554E0,0E0,0E0,0E0,0E0,0E0,0E0,0E0,0E0,0E0,0E0,0E0,0E0,0E0,0E0,0E0,0E0,0E0,0E0,0E0,0E0,0E0,0E0,0E0,0E0,0E0,0E0,0E0],"parents":[2147483647,0,0,1,1,2,2,3,3,4,4,5,5,6,6,7,7,8,8,9,9,10,10,12,12,13,13,14,14,15,15,16,16,17,17,18,18,19,19,20,20,21,21,22,22,23,23,24,24,25,25,26,26,27,27],"right_children":[2,4,6,8,10,12,14,16,18,20,22,-1,24,26,28,30,32,34,36,38,40,42,44,46,48,50,52,54,-1,-1,-1,-1,-1,-1,-1,-1,-1,-1,-1,-1,-1,-1,-1,-1,-1,-1,-1,-1,-1,-1,-1,-1,-1,-1,-1],"split_conditions":[1E0,3E0,8.01381E-1,8.01381E-1,7.977355E-1,3E0,1.0615723E1,7E0,1.769486E1,1E0,7E0,-9.9158965E-2,1E0,6E0,8.3288616E-1,3.318283E0,1.1E1,8.5863966E-1,5E0,7E0,4E0,8E0,1.1E1,2.5067238E1,6E1,1.8137637E0,9.1592455E-1,6E0,-1.015659E-1,4.335553E-2,1.7679714E-3,-4.8528038E-2,-6.3158968E-3,-6.1599165E-2,-9.446015E-2,-7.4731596E-2,1.777715E-2,9.4551235E-2,5.3871036E-2,5.992486E-2,-7.45641E-3,-9.299E-4,3.144196E-2,-3.0236898E-2,2.7582503E-3,-5.30428E-3,-1.1684183E-1,-1.1594991E-1,-4.7521843E-4,-1.8038796E-2,-8.053292E-2,1.551948E-2,-8.3554864E-2,2.7786989E-2,-8.654815E-2],"split_indices":[5,3,4,4,4,3,7,0,7,8,0,0,8,1,4,7,0,4,1,0,0,3,0,7,6,7,4,0,0,0,0,0,0,0,0,0,0,0,0,0,0,0,0,0,0,0,0,0,0,0,0,0,0,0,0],"split_type":[0,0,0,0,0,0,0,0,0,0,0,0,0,0,0,0,0,0,0,0,0,0,0,0,0,0,0,0,0,0,0,0,0,0,0,0,0,0,0,0,0,0,0,0,0,0,0,0,0,0,0,0,0,0,0],"sum_hessian":[3.9152703E3,2.573591E3,1.3416792E3,8.6895276E2,1.7046382E3,1.2611478E3,8.053138E1,8.24266E2,4.4686775E1,6.1643677E2,1.0882014E3,3.710794E1,1.2240399E3,4.501087E1,3.5520508E1,2.6239493E2,5.6187103E2,3.7261017E1,7.425757E0,5.063845E2,1.1005228E2,2.474685E2,8.407329E2,1.1844993E3,3.9540638E1,3.740114E1,7.6097326E0,5.9488335E0,2.9571674E1,1.9194515E1,2.4320041E2,1.1377196E2,4.480991E2,1.0501072E1,2.6759947E1,5.175064E0,2.2506926E0,1.4600262E2,3.6038187E2,1.9931211E1,9.012106E1,6.756321E1,1.7990529E2,2.4516449E2,5.955684E2,1.1740487E3,1.0450561E1,2.2535686E1,1.7004953E1,2.4406745E0,3.4960464E1,3.9678981E0,3.6418343E0,1.2958068E0,4.6530266E0],"tree_param":{"num_deleted":"0","num_feature":"9","num_nodes":"55","size_leaf_vector":"1"}},{"base_weights":[4.7026486E-3,7.7709235E-2,-1.727135E-1,-2.6139075E-2,2.5837296E-1,-4.8215386E-1,2.1450858E-1,1.7659876E-1,-3.612803E-1,3.6655527E-1,6.757063E-2,-4.6227854E-1,-1.3909142E0,3.3253264E-1,7.600866E-3,2.810089E-1,-1.0832956E-3,-3.2184932E-1,-9.8971546E-1,6.251896E-2,5.4808486E-1,-9.6135154E-2,1.0461416E-1,-4.3359077E-1,-8.7383544E-1,-1.8581318E0,-5.554831E-1,2.9136455E-2,5.1060086E-1,1.01485655E-1,-5.407227E-1,1.3329424E-3,4.6013385E-2,5.2051083E-3,-8.361157E-2,-3.0419802E-2,-1.2012901E-1,-1.1519231E-1,-3.9548893E-2,1.3458419E-2,-5.127684E-2,9.497018E-2,2.9191023E-2,-2.071409E-2,2.0950671E-2,-3.5988767E-2,-5.866791E-2,-5.7939615E-2,-1.5120415E-1,-4.117571E-2,-2.264326E-1,3.1087717E-2,-8.24564E-2,-2.1813368E-2,1.8290706E-2,9.3023114E-2,2.5771296E-2,-5.016697E-3,4.5566007E-2,-2.4002898E-2,-9.314895E-2],"categories":[],"categories_nodes":[],"categories_segments":[],"categories_sizes":[],"default_left":[0,0,0,0,0,0,0,0,0,0,0,0,0,0,0,0,0,0,0,0,0,0,0,0,0,0,0,0,0,0,0,0,0,0,0,0,0,0,0,0,0,0,0,0,0,0,0,0,0,0,0,0,0,0,0,0,0,0,0,0,0],"id":29,"left_children":[1,3,5,7,9,11,13,15,17,19,21,23,25,27,29,31,33,35,37,39,41,-1,43,45,47,49,51,53,55,57,59,-1,-1,-1,-1,-1,-1,-1,-1,-1,-1,-1,-1,-1,-1,-1,-1,-1,-1,-1,-1,-1,-1,-1,-1,-1,-1,-1,-1,-1,-1],"loss_changes":[5.0067715E1,5.138571E1,1.3513368E2,1.1827935E2,2.0609718E1,1.0676041E1,1.2237881E1,2.0124123E1,1.59398575E1,3.5162872E1,1.3933863E1,6.87941E0,4.008854E0,1.7227524E1,9.480141E0,3.2754353E1,1.7901443E1,9.24128E0,3.2317734E0,1.0000073E1,4.0792328E1,0E0,1.1528756E1,6.2956924E0,6.4666615E0,3.683281E0,1.6687132E0,4.568383E0,2.1096188E1,8.464413E0,2.9399986E0,0E0,0E0,0E0,0E0,0E0,0E0,0E0,0E0,0E0,0E0,0E0,0E0,0E0,0E0,0E0,0E0,0E0,0E0,0E0,0E0,0E0,0E0,0E0,0E0,0E0,0E0,0E0,0E0,0E0,0E0],"parents":[2147483647,0,0,1,1,2,2,3,3,4,4,5,5,6,6,7,7,8,8,9,9,10,10,11,11,12,12,13,13,14,14,15,15,16,16,17,17,18,18,19,19,20,20,22,22,23,23,24,24,25,25,26,26,27,27,28,28,29,29,30,30],"right_children":[2,4,6,8,10,12,14,16,18,20,22,24,26,28,30,32,34,36,38,40,42,-1,44,46,48,50,52,54,56,58,60,-1,-1,-1,-1,-1,-1,-1,-1,-1,-1,-1,-1,-1,-1,-1,-1,-1,-1,-1,-1,-1,-1,-1,-1,-1,-1,-1,-1,-1,-1],"split_conditions":[1.7E1,1.1E1,2.1E1,7E0,1E0,2.4252993E1,1E0,1E0,1E0,3E0,3E0,1E0,6.265989E-1,3E0,7.304748E-1,3E0,7.977355E-1,2.5067238E1,6E1,7.5769114E-1,8.047691E-1,-9.6135154E-2,4E0,1E0,5E0,6E0,6.962334E-1,8.360949E0,8.01381E-1,5.054278E-1,4E0,1.3329424E-3,4.6013385E-2,5.2051083E-3,-8.361157E-2,-3.0419802E-2,-1.2012901E-1,-1.1519231E-1,-3.9548893E-2,1.3458419E-2,-5.127684E-2,9.497018E-2,2.9191023E-2,-2.071409E-2,2.0950671E-2,-3.5988767E-2,-5.866791E-2,-5.7939615E-2,-1.5120415E-1,-4.117571E-2,-2.264326E-1,3.1087717E-2,-8.24564E-2,-2.1813368E-2,1.8290706E-2,9.3023114E-2,2.5771296E-2,-5.016697E-3,4.5566007E-2,-2.4002898E-2,-9.314895E-2],"split_indices":[0,0,0,0,5,7,5,5,8,3,3,8,4,3,4,3,4,7,6,4,4,0,2,5,1,3,4,7,4,4,1,0,0,0,0,0,0,0,0,0,0,0,0,0,0,0,0,0,0,0,0,0,0,0,0,0,0,0,0,0,0],"split_type":[0,0,0,0,0,0,0,0,0,0,0,0,0,0,0,0,0,0,0,0,0,0,0,0,0,0,0,0,0,0,0,0,0,0,0,0,0,0,0,0,0,0,0,0,0,0,0,0,0,0,0,0,0,0,0,0,0,0,0,0,0],"sum_hessian":[3.8634363E3,2.737514E3,1.1259224E3,1.7388507E3,9.986631E2,6.25679E2,5.0024335E2,1.0837363E3,6.551144E2,6.367266E2,3.6193643E2,6.137642E2,1.1914821E1,3.1815472E2,1.8208862E2,6.8224927E2,4.0148715E2,6.1785913E2,3.725523E1,2.385439E2,3.9818274E2,1.17106E1,3.5022583E2,5.75689E2,3.807518E1,6.856271E0,5.05855E0,1.1809896E2,2.0005577E2,1.5616478E2,2.592385E1,2.7394608E2,4.0830316E2,3.7834982E2,2.3137308E1,6.070215E2,1.0837648E1,2.852905E1,8.726178E0,2.1266925E2,2.5874643E1,1.5401656E2,2.4416618E2,8.7925224E1,2.6230063E2,3.9086243E2,1.848266E2,2.7360252E1,1.071493E1,1.9448292E0,4.9114413E0,1.1619824E0,3.8965673E0,4.5122063E1,7.29769E1,7.422006E1,1.258357E2,1.0994584E2,4.621894E1,1.5562673E1,1.0361177E1],"tree_param":{"num_deleted":"0","num_feature":"9","num_nodes":"61","size_leaf_vector":"1"}},{"base_weights":[4.288479E-3,7.0937105E-2,-1.5731154E-1,-2.3812825E-2,2.3700461E-1,-4.3724385E-1,1.9668137E-1,1.612658E-1,-3.2643107E-1,3.3946338E-1,6.050127E-2,-4.0697926E-1,-9.224522E-1,6.07412E-2,3.6729968E-1,2.58312E-1,-1.3441768E-3,-2.9068744E-1,-8.944965E-1,5.6099515E-2,5.153731E-1,-9.507664E-2,9.4036296E-2,-3.7767473E-1,-8.4946275E-1,-1.0812117E0,-2.4440275E-1,8.973281E-2,-7.4930567E-1,5.5600554E-1,1.4029257E-1,1.1999576E-3,4.2856332E-2,4.6840366E-3,-8.129295E-2,-4.9044576E-2,-2.1344809E-2,-5.6975912E-2,-1.16023675E-1,1.0631981E-2,-6.739024E-2,9.3080334E-2,2.6709482E-2,-1.3453695E-2,2.1396399E-2,-3.0443406E-2,-5.3522438E-2,-6.0524125E-2,-1.4467461E-1,-4.3402415E-2,-1.4788567E-1,1.172665E-2,-9.278386E-2,1.9322794E-2,-1.4575228E-2,-6.0914173E-3,-1.1406662E-1,9.2271134E-2,3.36664E-2,2.4598686E-2,-6.263869E-2],"categories":[],"categories_nodes":[],"categories_segments":[],"categories_sizes":[],"default_left":[0,0,0,0,0,0,0,0,0,0,0,0,0,0,0,0,0,0,0,0,0,0,0,0,0,0,0,0,0,0,0,0,0,0,0,0,0,0,0,0,0,0,0,0,0,0,0,0,0,0,0,0,0,0,0,0,0,0,0,0,0],"id":30,"left_children":[1,3,5,7,9,11,13,15,17,19,21,23,25,27,29,31,33,35,37,39,41,-1,43,45,47,49,51,53,55,57,59,-1,-1,-1,-1,-1,-1,-1,-1,-1,-1,-1,-1,-1,-1,-1,-1,-1,-1,-1,-1,-1,-1,-1,-1,-1,-1,-1,-1,-1,-1],"loss_changes":[4.11652E1,4.258384E1,1.1067994E2,9.660261E1,1.775851E1,8.780869E0,1.1424368E1,1.6890875E1,1.3029938E1,3.0966469E1,1.2376132E1,7.3128433E0,3.5915756E0,6.545986E0,9.2883835E0,2.810392E1,1.5720674E1,9.419163E0,2.6410027E0,8.844194E0,3.9309357E1,0E0,9.6664915E0,6.2290344E0,4.341604E0,6.7522354E0,2.1079037E0,6.5410585E0,2.527429E0,9.265762E0,8.30521E0,0E0,0E0,0E0,0E0,0E0,0E0,0E0,0E0,0E0,0E0,0E0,0E0,0E0,0E0,0E0,0E0,0E0,0E0,0E0,0E0,0E0,0E0,0E0,0E0,0E0,0E0,0E0,0E0,0E0,0E0],"parents":[2147483647,0,0,1,1,2,2,3,3,4,4,5,5,6,6,7,7,8,8,9,9,10,10,11,11,12,12,13,13,14,14,15,15,16,16,17,17,18,18,19,19,20,20,22,22,23,23,24,24,25,25,26,26,27,27,28,28,29,29,30,30],"right_children":[2,4,6,8,10,12,14,16,18,20,22,24,26,28,30,32,34,36,38,40,42,-1,44,46,48,50,52,54,56,58,60,-1,-1,-1,-1,-1,-1,-1,-1,-1,-1,-1,-1,-1,-1,-1,-1,-1,-1,-1,-1,-1,-1,-1,-1,-1,-1,-1,-1,-1,-1],"split_conditions":[1.7E1,1.1E1,2.1E1,7E0,1E0,2.1467018E1,1E1,1E0,1E0,3E0,3E0,1E0,1.2E2,9.695519E-1,1E0,3E0,7.977355E-1,5E0,5.5565184E-1,7.855643E-1,8.047691E-1,-9.507664E-2,5E0,1E0,2E1,9E0,8.440592E-1,1E0,9.011987E0,8.01381E-1,1.8001596E1,1.1999576E-3,4.2856332E-2,4.6840366E-3,-8.129295E-2,-4.9044576E-2,-2.1344809E-2,-5.6975912E-2,-1.16023675E-1,1.0631981E-2,-6.739024E-2,9.3080334E-2,2.6709482E-2,-1.3453695E-2,2.1396399E-2,-3.0443406E-2,-5.3522438E-2,-6.0524125E-2,-1.4467461E-1,-4.3402415E-2,-1.4788567E-1,1.172665E-2,-9.278386E-2,1.9322794E-2,-1.4575228E-2,-6.0914173E-3,-1.1406662E-1,9.2271134E-2,3.36664E-2,2.4598686E-2,-6.263869E-2],"split_indices":[0,0,0,0,5,7,3,5,8,3,3,8,6,4,5,3,4,3,4,4,4,0,2,5,0,3,4,5,7,4,7,0,0,0,0,0,0,0,0,0,0,0,0,0,0,0,0,0,0,0,0,0,0,0,0,0,0,0,0,0,0],"split_type":[0,0,0,0,0,0,0,0,0,0,0,0,0,0,0,0,0,0,0,0,0,0,0,0,0,0,0,0,0,0,0,0,0,0,0,0,0,0,0,0,0,0,0,0,0,0,0,0,0,0,0,0,0,0,0,0,0,0,0,0,0],"sum_hessian":[3.8200251E3,2.7049746E3,1.1150504E3,1.7228551E3,9.8211957E2,6.225288E2,4.925216E2,1.0693296E3,6.5352545E2,6.2081696E2,3.6130258E2,5.8770953E2,3.4819263E1,2.748727E2,2.1764888E2,6.693004E2,4.0002924E2,6.1626105E2,3.726445E1,2.382888E2,3.8252817E2,1.0718827E1,3.5058377E2,5.5294305E2,3.4766453E1,2.7731565E1,7.0876994E0,2.6623343E2,8.639279E0,1.18059456E2,9.958943E1,2.7398337E2,3.9531705E2,3.7849966E2,2.152958E1,1.7034943E2,4.459116E2,1.8185553E1,1.9078897E1,2.237503E2,1.4538489E1,1.4206676E2,2.4046143E2,1.20602516E2,2.2998125E2,3.794699E2,1.7347316E2,2.6105549E1,8.660902E0,1.1350134E1,1.6381432E1,5.1766634E0,1.9110361E0,1.8507352E2,8.115992E1,3.5502112E0,5.089068E0,4.2986244E1,7.507321E1,8.812033E1,1.1469099E1],"tree_param":{"num_deleted":"0","num_feature":"9","num_nodes":"61","size_leaf_vector":"1"}},{"base_weights":[3.8451082E-3,6.470927E-2,-1.4307654E-1,-2.1742437E-2,2.1715757E-1,-3.9650795E-1,1.7917635E-1,1.4709821E-1,-2.958116E-1,3.1389743E-1,5.4167278E-2,-3.79456E-1,-1.1361632E0,5.4392E-2,3.3873576E-1,2.3710728E-1,-1.557142E-3,-2.63173E-1,-8.1536865E-1,5.0238334E-2,4.8364478E-1,-9.4010085E-2,8.4570795E-2,-4.384159E-1,-2.110202E-1,-1.4851291E0,-4.256972E-1,7.652643E-2,-8.652626E-1,5.23435E-1,1.25622E-1,1.0802558E-3,3.9837174E-2,4.2153257E-3,-7.893503E-2,-1.8530918E-2,-4.4714242E-2,-9.606548E-2,-2.8189177E-2,1.22737605E-2,-3.8575996E-2,9.114338E-2,2.4412176E-2,3.395803E-2,-1.0645998E-3,-1.2717369E-1,-4.1636363E-2,2.8501173E-2,-2.746277E-2,-4.0485993E-2,-1.7591706E-1,1.1295821E-2,-9.7617924E-2,1.0245776E-2,-6.484536E-2,6.465708E-3,-1.0888564E-1,9.042101E-2,3.091979E-2,2.2090804E-2,-5.7563752E-2],"categories":[],"categories_nodes":[],"categories_segments":[],"categories_sizes":[],"default_left":[0,0,0,0,0,0,0,0,0,0,0,0,0,0,0,0,0,0,0,0,0,0,0,0,0,0,0,0,0,0,0,0,0,0,0,0,0,0,0,0,0,0,0,0,0,0,0,0,0,0,0,0,0,0,0,0,0,0,0,0,0],"id":31,"left_children":[1,3,5,7,9,11,13,15,17,19,21,23,25,27,29,31,33,35,37,39,41,-1,43,45,47,49,51,53,55,57,59,-1,-1,-1,-1,-1,-1,-1,-1,-1,-1,-1,-1,-1,-1,-1,-1,-1,-1,-1,-1,-1,-1,-1,-1,-1,-1,-1,-1,-1,-1],"loss_changes":[3.382002E1,3.5248737E1,9.054689E1,7.905027E1,1.5243011E1,7.39431E0,9.705618E0,1.41457E1,1.0828106E1,2.7147812E1,1.101281E1,5.945198E0,2.7098541E0,5.6692057E0,8.363119E0,2.4026913E1,1.37965765E1,8.715008E0,2.675497E0,7.5989156E0,3.7610054E1,0E0,8.54733E0,7.729027E0,5.1127305E0,1.8449593E0,1.8425325E0,5.136703E0,1.432373E0,9.052782E0,6.8584332E0,0E0,0E0,0E0,0E0,0E0,0E0,0E0,0E0,0E0,0E0,0E0,0E0,0E0,0E0,0E0,0E0,0E0,0E0,0E0,0E0,0E0,0E0,0E0,0E0,0E0,0E0,0E0,0E0,0E0,0E0],"parents":[2147483647,0,0,1,1,2,2,3,3,4,4,5,5,6,6,7,7,8,8,9,9,10,10,11,11,12,12,13,13,14,14,15,15,16,16,17,17,18,18,19,19,20,20,22,22,23,23,24,24,25,25,26,26,27,27,28,28,29,29,30,30],"right_children":[2,4,6,8,10,12,14,16,18,20,22,24,26,28,30,32,34,36,38,40,42,-1,44,46,48,50,52,54,56,58,60,-1,-1,-1,-1,-1,-1,-1,-1,-1,-1,-1,-1,-1,-1,-1,-1,-1,-1,-1,-1,-1,-1,-1,-1,-1,-1,-1,-1,-1,-1],"split_conditions":[1.7E1,1.1E1,2.1E1,7E0,1E0,2.4252993E1,1E1,1E0,1E0,3E0,3E0,1.5E1,6.463566E-1,2.4252993E1,1E0,3E0,7.977355E-1,1E0,6E1,7.342616E-1,8.047691E-1,-9.4010085E-2,2E0,2.021814E0,4.3183517E0,6E0,7.977355E-1,9.695519E-1,2E0,8.01381E-1,1.8001596E1,1.0802558E-3,3.9837174E-2,4.2153257E-3,-7.893503E-2,-1.8530918E-2,-4.4714242E-2,-9.606548E-2,-2.8189177E-2,1.22737605E-2,-3.8575996E-2,9.114338E-2,2.4412176E-2,3.395803E-2,-1.0645998E-3,-1.2717369E-1,-4.1636363E-2,2.8501173E-2,-2.746277E-2,-4.0485993E-2,-1.7591706E-1,1.1295821E-2,-9.7617924E-2,1.0245776E-2,-6.484536E-2,6.465708E-3,-1.0888564E-1,9.042101E-2,3.091979E-2,2.2090804E-2,-5.7563752E-2],"split_indices":[0,0,0,0,5,7,3,5,8,3,3,3,4,7,5,3,4,5,6,4,4,0,1,7,7,3,4,4,3,4,7,0,0,0,0,0,0,0,0,0,0,0,0,0,0,0,0,0,0,0,0,0,0,0,0,0,0,0,0,0,0],"split_type":[0,0,0,0,0,0,0,0,0,0,0,0,0,0,0,0,0,0,0,0,0,0,0,0,0,0,0,0,0,0,0,0,0,0,0,0,0,0,0,0,0,0,0,0,0,0,0,0,0,0,0,0,0,0,0,0,0,0,0,0,0],"sum_hessian":[3.7800073E3,2.6731716E3,1.1068357E3,1.7063674E3,9.668042E2,6.194484E2,4.8738724E2,1.0561737E3,6.501938E2,6.0612445E2,3.6067972E2,6.0696844E2,1.2479975E1,2.7424963E2,2.131376E2,6.5748145E2,3.9869223E2,6.1318036E2,3.701347E1,2.3790144E2,3.6822302E2,9.814103E0,3.508656E2,4.4840445E2,1.5856403E2,7.6379933E0,4.8419814E0,2.686993E2,5.550321E0,1.134006E2,9.973701E1,2.7401675E2,3.8346466E2,3.7863055E2,2.006168E1,4.3224344E2,1.8093692E2,2.8461563E1,8.5519085E0,2.0459859E2,3.3302853E1,1.3116202E2,2.3706102E2,9.469287E1,2.5617273E2,1.0099289E1,4.3830515E2,1.7626444E1,1.4093758E2,2.0468178E0,5.591175E0,2.8489954E0,1.992986E0,2.602493E2,8.450007E0,1.2136428E0,4.336678E0,3.9670853E1,7.3729744E1,8.8409096E1,1.1327906E1],"tree_param":{"num_deleted":"0","num_feature":"9","num_nodes":"61","size_leaf_vector":"1"}},{"base_weights":[3.4684683E-3,6.7080505E-2,-1.1669925E-1,-9.679452E-2,1.5392852E-1,-9.885648E-2,-8.819222E-2,-6.312036E-2,-7.758773E-1,4.8433933E-1,-1.6771931E-2,-5.632261E-2,-7.38777E-1,-5.2143868E-2,-8.418588E-1,-8.361618E-1,-4.134113E-1,5.9607244E-1,2.835113E-2,-6.8818935E-4,-9.443109E-1,-3.7842147E-2,-6.203658E-1,-5.759435E-1,-9.2350733E-1,-3.3856437E-3,-4.8256572E-2,-5.0913423E-2,-1.1047595E-1,-5.6415595E-2,-9.193855E-2,-7.025238E-2,2.37905E-2,6.5774694E-2,-3.6543848E-3,-4.7077034E-3,9.06705E-2,2.502048E-3,-5.4296173E-2,-1.0967847E-1,-1.8244155E-2,-2.804725E-3,-1.1143316E-1,-1.1220125E-1,1.9569674E-3,-9.286664E-2,-4.3556925E-2,-4.942712E-2,-9.9191956E-2],"categories":[],"categories_nodes":[],"categories_segments":[],"categories_sizes":[],"default_left":[0,0,0,0,0,0,0,0,0,0,0,0,0,0,0,0,0,0,0,0,0,0,0,0,0,0,0,0,0,0,0,0,0,0,0,0,0,0,0,0,0,0,0,0,0,0,0,0,0],"id":32,"left_children":[1,3,5,7,9,-1,11,13,15,17,19,21,23,25,27,29,31,33,35,37,39,41,43,45,47,-1,-1,-1,-1,-1,-1,-1,-1,-1,-1,-1,-1,-1,-1,-1,-1,-1,-1,-1,-1,-1,-1,-1,-1],"loss_changes":[2.8638386E1,3.4878963E1,3.21434E1,1.9369032E1,9.033512E1,0E0,2.6017162E1,6.8808756E0,5.290108E-1,2.777967E1,1.5766941E1,1.247684E1,1.2310886E0,6.2801414E0,4.1671753E-1,2.3612785E-1,1.6144645E0,1.711908E1,7.2261095E0,1.4511181E1,1.8925323E0,1.2223443E1,1.2214298E1,1.2694387E0,2.6737785E-1,0E0,0E0,0E0,0E0,0E0,0E0,0E0,0E0,0E0,0E0,0E0,0E0,0E0,0E0,0E0,0E0,0E0,0E0,0E0,0E0,0E0,0E0,0E0,0E0],"parents":[2147483647,0,0,1,1,2,2,3,3,4,4,6,6,7,7,8,8,9,9,10,10,11,11,12,12,13,13,14,14,15,15,16,16,17,17,18,18,19,19,20,20,21,21,22,22,23,23,24,24],"right_children":[2,4,6,8,10,-1,12,14,16,18,20,22,24,26,28,30,32,34,36,38,40,42,44,46,48,-1,-1,-1,-1,-1,-1,-1,-1,-1,-1,-1,-1,-1,-1,-1,-1,-1,-1,-1,-1,-1,-1,-1,-1],"split_conditions":[1E0,3E0,3E0,8.01381E-1,7.977355E-1,-9.885648E-2,8.01381E-1,2.5067238E1,1.769486E1,1E0,2.5067238E1,1E0,1.0615723E1,1E0,7E0,8.5863966E-1,5E0,2.3109257E1,6E1,1E0,1.8E1,2.5067238E1,6E1,4E0,8.3288616E-1,-3.3856437E-3,-4.8256572E-2,-5.0913423E-2,-1.1047595E-1,-5.6415595E-2,-9.193855E-2,-7.025238E-2,2.37905E-2,6.5774694E-2,-3.6543848E-3,-4.7077034E-3,9.06705E-2,2.502048E-3,-5.4296173E-2,-1.0967847E-1,-1.8244155E-2,-2.804725E-3,-1.1143316E-1,-1.1220125E-1,1.9569674E-3,-9.286664E-2,-4.3556925E-2,-4.942712E-2,-9.9191956E-2],"split_indices":[5,3,3,4,4,0,4,7,7,8,7,8,7,8,2,4,1,7,6,8,3,7,6,2,4,0,0,0,0,0,0,0,0,0,0,0,0,0,0,0,0,0,0,0,0,0,0,0,0],"split_type":[0,0,0,0,0,0,0,0,0,0,0,0,0,0,0,0,0,0,0,0,0,0,0,0,0,0,0,0,0,0,0,0,0,0,0,0,0,0,0,0,0,0,0,0,0,0,0,0,0],"sum_hessian":[3.7444385E3,2.4486577E3,1.2957808E3,8.481515E2,1.6005063E3,3.995991E1,1.2558208E3,8.0912195E2,3.9029552E1,5.4457666E2,1.0559297E3,1.1982117E3,5.7609135E1,7.989278E2,1.0194106E1,3.2343403E1,6.6861506E0,4.371519E2,1.0742477E2,1.0389154E3,1.7014292E1,1.1612319E3,3.697982E1,3.280787E1,2.4801268E1,7.674017E2,3.1526115E1,5.7957125E0,4.3983936E0,9.399883E0,2.294352E1,4.576201E0,2.1099496E0,3.982831E2,3.886878E1,9.980083E1,7.6239386E0,9.9280145E2,4.6113903E1,1.3810737E1,3.2035558E0,1.1517781E3,9.45389E0,2.0307447E1,1.667237E1,7.7410483E0,2.506682E1,4.5401397E0,2.0261127E1],"tree_param":{"num_deleted":"0","num_feature":"9","num_nodes":"49","size_leaf_vector":"1"}},{"base_weights":[2.9435544E-3,5.9434112E-2,-1.327908E-1,-2.09655E-2,2.0170045E-1,-3.6700606E-1,1.6590096E-1,1.3573925E-1,-2.74409E-1,2.178256E-1,-5.603564E-1,-3.415312E-1,-7.649796E-1,5.4099068E-2,3.1180707E-1,2.1443951E-1,8.248677E-3,-2.4071224E-1,-7.385379E-1,3.068123E-1,7.354089E-2,-8.452025E-2,-9.511714E-1,-3.159129E-1,-7.224477E-1,-5.6022245E-1,-1.3103215E0,7.8097366E-2,-6.0934293E-1,4.8476586E-1,1.2183507E-1,1.9010708E-3,3.598554E-2,-9.525672E-2,3.872766E-3,-1.6937604E-2,-4.1733682E-2,-8.8533424E-2,2.6625419E-2,6.6730166E-3,4.727017E-2,-9.1659084E-2,9.935404E-3,2.678961E-2,-7.554756E-2,-1.13659225E-1,1.3026193E-2,-2.498634E-2,-4.6605177E-2,-4.676524E-2,-1.2369259E-1,-8.5906826E-2,2.9137885E-2,-5.3298015E-2,-1.5054125E-1,1.6836843E-2,-1.2720098E-2,-8.716767E-2,1.8376894E-2,8.961231E-2,2.9330213E-2,2.0637717E-2,-5.1499207E-2],"categories":[],"categories_nodes":[],"categories_segments":[],"categories_sizes":[],"default_left":[0,0,0,0,0,0,0,0,0,0,0,0,0,0,0,0,0,0,0,0,0,0,0,0,0,0,0,0,0,0,0,0,0,0,0,0,0,0,0,0,0,0,0,0,0,0,0,0,0,0,0,0,0,0,0,0,0,0,0,0,0,0,0],"id":33,"left_children":[1,3,5,7,9,11,13,15,17,19,21,23,25,27,29,31,33,35,37,39,41,43,45,47,49,51,53,55,57,59,61,-1,-1,-1,-1,-1,-1,-1,-1,-1,-1,-1,-1,-1,-1,-1,-1,-1,-1,-1,-1,-1,-1,-1,-1,-1,-1,-1,-1,-1,-1,-1,-1],"loss_changes":[2.8424503E1,2.994462E1,7.6274826E1,6.649539E1,1.17375145E1,5.9325256E0,7.804929E0,1.0379736E1,9.826317E0,1.1871601E1,3.6141334E0,5.392418E0,3.2798843E0,4.3891325E0,6.769024E0,1.8172913E1,1.1632558E1,7.46204E0,6.5507545E0,